585761
-1.49311e+006
557966
-83782
274589
-801917
301006
7556.02
-156428
552737
33481
855340
-1.02302e+006
426636
19836
-1.41319e+006
-123488
-782305
-902475
-421486
50619
-1.72817e+006
94737
-327616
-314360
-8502
401854
-121997
-899434
-916636
366206
-439662
-1.79141e+006
-357060
-1.81301e+006
70070
841232
145567
-1.06633e+006
873841
-433367
-865630
-1.22738e+006
-366811
-441740
-12458
-714018
778643
-1.11065e+006
1.39396e+006
147766
-952052
364950
843631
-463508
-1.74426e+006
-1.3328e+006
-711369
-961616
-528660
745750
-753941
500964
-410052
-970545
-319542
-984142
452265
296955
205507
617834
-152761
398491
-117127
26754
-45336
-190427
547320
-133083
-514677
-718307
-1.18868e+006
-777563
-577397
-868488
288324
131117
325213
21951
607881
458299
-489380
814420
-614699
-128392
640652
196136
-10309
279980
-1.90374e+006
770829
386456
-78479
330424
-1.73234e+006
-500347
-350128
245663
-426784
408343
-277930
1.57223e+006
-235074
-98298
289552
291914
-2.36217e+006
-647044
2.75539e+006
277993
-1.08891e+006
-126552
234823
-648320
194855
-1.40424e+006
602267
148883
-361841
-643711
-1.64636e+006
715285
-1.84957e+006
-721318
-1.76297e+006
623218
-577492
-808226
942110
-1.81502e+006
-165589
449937
554538
-203451
386047
-369040
133074
-290883
906969
-109991
1.44761e+006
4006.93
763700
7850
804894
-618722
355603
-1.50641e+006
-1.12592e+006
-217233
-334744
875271
-32662.1
-340892
703360
478241
39276.1
159916
-2.38316e+006
99689
-351897
470035
531834
535202
-1.28231e+006
299569
-594930
-1.28249e+006
110179
572456
401237
-807919
512692
497712
-240448
170625
735258
720767
75696
181633
566996
-160892
-66408
356489
1.29621e+006
-59268
1.13693e+006
-530306
59188
815608
438090
87570
846938
689859
41881
-500587
-184582
824098
-2.06502e+006
-319009
-517913
587856
-120963
-642522
300557
-504613
-32605
-1.34775e+006
330507
1.21627e+006
766451
-1.0439e+006
47762
-1.98408e+006
250350
25809.9
650447
-139557
112235
44710
-480300
1.95096e+006
1.1357e+006
-15292
-597708
132885
171787
1.80046e+006
979481
-1.36923e+006
-490961
83463.9
1.22083e+006
469075
392095
-851674
-272274
-637692
616053
276830
-695863
34964
154196
923186
268725
-148119
2.4442e+006
382698
-432757
426124
-680101
-78095.9
226554
-98214
257809
1.13439e+006
368794
-385213
-540617
-801812
-8926.95
480875
-1.37252e+006
-327581
-996010
-270885
423233
-969790
-1.3008e+006
984244
-577928
-950229
1.53248e+006
854257
821992
137173
1.20704e+006
-487856
966100
1.14354e+006
-41033
-1.49023e+006
31432
585179
-1.25986e+006
239352
475807
366740
764739
-585254
579606
112406
617702
242889
-60645.9
-419325
-500585
816722
-619806
341920
189757
-1918.01
158705
-359314
-236913
-178189
560225
247182
775482
159913
-852744
919374
1.34853e+006
-639978
656644
-277617
204090
-1.21267e+006
-1.44637e+006
621790
1.21541e+006
336540
190856
-1.52381e+006
-67403
255942
304464
-3.72948e+006
563546
-82353
31180
-315969
-234342
-178755
-368129
-395781
884739
-78831
-1.46117e+006
-716112
-832503
2.33461e+006
-826919
-394347
-106823
-253451
-877439
5718.99
-332423
-336490
-532837
-76713.9
242918
45065.1
705247
702680
442129
90036
-1.29195e+006
-862985
-32761
-503516
-1.02597e+006
-431556
32856
75136.1
843593
2.32546e+006
-902749
-600139
1.12629e+006
13720
324087
-663088
-414995
647581
-591040
-874459
1.55481e+006
344919
-831931
-101829
1.27277e+006
-838434
1.15736e+006
361567
-699159
-395246
-116487
554104
-358358
391748
-725089
-286139
386674
730711
416814
-180176
281709
97528
585374
1.50578e+006
-100490
683965
-1.08641e+006
67873
-810490
525430
-705960
115102
-263678
673429
-33519
328969
-433891
523027
-553650
1.10808e+006
441419
-138923
73506
-540116
-190326
-889993
-92020
729363
-1.07175e+006
-515390
-158206
875701
726111
-244360
642460
930226
1.27957e+006
-227745
346940
439287
1.98226e+006
-644511
-1.25278e+006
-1.13533e+006
-351922
-491689
-171486
-531761
-623574
-503825
-593726
-1.11353e+006
1.38763e+006
-490467
1.10826e+006
-472503
730381
-379535
428383
-119373
74926
306883
-229431
-2.60798e+006
467412
-1.43602e+006
-1.44575e+006
-286428
-31031.9
-423567
-628266
-120664
-52112
436648
-772357
633288
611679
-18993
-1.32695e+006
-604065
-250983
1.20819e+006
-578992
-211411
-563656
438256
873200
509180
1.2529e+006
1.73728e+006
228747
527467
-13337
2.02479e+006
-1.23149e+006
28853.9
-1.35554e+006
36215
-1.29211e+006
-387978
1.02407e+006
-123753
-1.09615e+006
-503139
1.60519e+006
-1.68486e+006
-359147
-159180
-67232.9
-267370
-1.16535e+006
133062
-135860
-229149
-340758
576979
510596
177464
78601.9
581905
-285371
-1.20887e+006
-201098
-491659
305655
-681330
122026
191146
-261865
90523
60928.9
-945032
-643750
916793
-163257
1.17593e+006
-417784
-77078
-11710
34186
888814
426721
1.15548e+006
-1.67634e+006
1.41077e+006
-556388
-118766
156565
1.77474e+006
-160735
152405
220469
119153
251734
1.42264e+006
95160
-1.4823e+006
-507924
657361
425380
-123734
-52992
-74288
359832
569136
-221933
-623992
146770
250964
-144220
316051
348217
-1.04703e+006
-612949
337736
-563606
791507
-682275
1.02606e+006
102591
-744444
-422857
386385
414663
-326896
1.73902e+006
-16741
46424.1
197199
1.30663e+006
-212851
-806295
742839
74369
-53308.1
-1.2332e+006
69745
-341011
-216510
-439424
193581
-1.21856e+006
979172
-751014
1.0983e+006
-375119
230866
-293421
1.34246e+006
414101
349300
-165889
-245243
-342982
-126140
320665
450710
495112
807351
1.03203e+006
72469
-1954.03
318620
47344
-539201
-1.06922e+006
-433729
113473
1.54241e+006
-2.40543e+006
-503061
-735586
449302
-757611
7387.99
1.19009e+006
-230217
-8361.97
7455.02
-214866
-1.05709e+006
185052
-632641
-575116
-314988
1.30862e+006
-599505
1.28924e+006
1.09616e+006
613220
-61809
666061
-1.38358e+006
-178442
-50128
-392735
278866
625162
380993
762667
-955288
302468
283097
370322
554360
-512342
-127217
-496640
703194
-1.21601e+006
171116
-1.0134e+006
223254
606836
-471347
-505549
603712
-18370
-1.06142e+006
-367558
607816
-682221
-632763
1.37207e+006
-925533
-99224
-1.19744e+006
1.85922e+006
1.60027e+006
-1.71777e+006
-448681
664584
-1.11809e+006
751206
-27246
-248364
-285484
398885
-851438
215946
-208878
618138
1.95976e+006
-35948
-1.23237e+006
1.39551e+006
-508732
1.34121e+006
1.75758e+006
476168
668940
107249
185509
-2.03509e+006
-1.44405e+006
-602629
-792111
-497791
-295892
-264885
848936
-1.09882e+006
671845
-872408
-931191
480197
-691869
898352
224298
1.0841e+006
-77589.9
-380658
257847
-56151
418263
52994
316765
-1.35481e+006
-1.20991e+006
-222002
590723
1.93476e+006
-379599
-291391
-582817
1.75146e+006
-1.00479e+006
31581
-1.11092e+006
-2.1711e+006
376457
555423
793168
154071
-78145.9
-1.3246e+006
130799
-940325
-366345
1.39113e+006
-333148
1.33699e+006
311197
-400844
-1.00057e+006
941073
-421038
313221
-669574
-606642
1.71072e+006
135650
1.77939e+006
-1.88484e+006
-480527
1.66285e+006
1.07576e+006
-406699
354502
938208
73549
254380
-593492
-654789
1.17113e+006
101420
-183967
-76299.9
704115
-185851
-2.81958e+006
-1.05398e+006
123066
1.48971e+006
231265
-574068
-251583
-305530
-380116
-1.31709e+006
932528
-226170
-650900
-227454
-78957
-230635
179036
-61038
-647721
-1.04914e+006
1.92022e+006
201290
-379.038
2.02509e+006
-59980
804190
225620
1.02364e+006
-127192
-728207
270997
743068
253436
100348
903529
-550117
1.471e+006
-485274
-1.5463e+006
28789.9
-542988
-107799
212654
-458044
919292
-1.03783e+006
-999839
-119802
-67199
-753313
93648.9
321084
-231802
840830
-1.75571e+006
-612928
-348801
-1.64608e+006
21522.9
-806835
526768
-868096
-1.20227e+006
-620485
-552209
1.45763e+006
945387
307604
-224899
867307
80351
486245
-692202
-253137
648615
481321
652679
-512077
-569802
-1.89036e+006
-50826
776090
1.0939e+006
-143412
-183648
-455714
125752
1.17654e+006
725073
969099
1.82434e+006
109603
-296144
1.02124e+006
836941
366770
353988
-690226
-692569
186114
499501
90333
354236
368524
35132
678206
-259947
-42221.1
-700530
372041
1.40486e+006
1.04996e+006
-192893
-584535
-878206
1.20867e+006
-271450
413204
71806
-1.41117e+006
-926838
-642276
-252754
-756118
2.00239e+006
1.11373e+006
150363
-1.02432e+006
976954
-370386
-11659
1.01501e+006
577208
-112443
-251899
629079
-179543
1.26751e+006
-135309
-271909
1.23241e+006
318007
-9748.03
-69420
465088
-924178
-380968
-1.27015e+006
1.02263e+006
170214
1.17001e+006
-1.08768e+006
-518477
-795452
350323
-276442
-384362
242768
1.16468e+006
8565.94
-772346
-864016
1.29753e+006
356045
356310
-454289
-1.76215e+006
-401928
1.01443e+006
263702
327541
332252
-5446.09
-35457
-347153
422776
-675314
1.06696e+006
99019
437793
-428760
-110635
407647
-1.22556e+006
737054
117391
-1.00273e+006
-1.46016e+006
-498858
170050
509341
883633
672392
1.24364e+006
199266
-253470
338699
-55999
-122655
-396626
1.0297e+006
311269
-244765
-933935
-380113
1.03496e+006
60429
-1.27496e+006
1.03197e+006
128389
63953
-260107
-193169
436246
-525625
-494603
-197333
378469
1.6549e+006
-73442
-520831
620317
-1.76077e+006
-213827
225102
-338180
-845846
-338862
1.37682e+006
85077.1
-510027
-412725
-188314
322966
677220
-592469
-541028
536667
-1.04191e+006
1.44114e+006
-637117
-136806
909426
1.21575e+006
-1.98631e+006
671414
149926
661392
154716
388750
-1.35132e+006
1.92654e+006
-1.09221e+006
-459067
1.06204e+006
577541
-149747
1.15707e+006
1.15607e+006
765089
713282
203951
140800
228772
-64458
-549438
425160
-115096
88610
-2.057e+006
906613
151127
302292
873371
413613
-496201
-456568
257397
-684375
-73356.1
-205543
-2.19688e+006
-1.2173e+006
-486134
1.10038e+006
-398026
-1.04117e+006
-1.43715e+006
-850355
-665110
46460
193929
-475187
956697
74361
1.60568e+006
-2.01836e+006
-535554
1.18831e+006
1.23365e+006
936423
-375706
383881
1.36208e+006
79761
-655132
438162
1.21662e+006
-38512.1
467130
-1.2789e+006
399222
-1.21856e+006
-313828
1.39027e+006
-451400
7381.07
1.53824e+006
-487711
1.38639e+006
394809
-674173
-313928
-74805
1.20703e+006
75365.1
-1.3941e+006
946670
735680
-36095
1.02593e+006
-277321
-814594
1.1181e+006
802488
1.44869e+006
-551404
632631
501360
833355
305197
787113
1.36617e+006
-1.93494e+006
-62633
-237052
-1.12717e+006
-693444
1.66601e+006
-330500
1.16274e+006
-37520
-754153
-309564
-186551
31979
-328174
40618
1.48866e+006
958331
-495906
-1.22118e+006
1.0429e+006
495539
906389
-694330
-1.77555e+006
-624898
117500
827057
-573018
428315
-414052
1.10299e+006
-16755
1.0531e+006
-912900
1.52401e+006
-743248
309642
742054
470400
-951266
655425
113113
969559
-1.65714e+006
276369
972287
-899536
883297
-5942.96
1.31486e+006
-165265
-1.6538e+006
-336154
1.20533e+006
-222748
-63612
407915
698570
1.13053e+006
1.03573e+006
-183707
-293764
638538
876649
-1.70162e+006
-493978
-139706
131297
-142263
-216760
112556
-199010
500666
455830
767479
-680558
-818363
905960
1.10167e+006
1.06215e+006
29153
-2.38419e+006
127671
-185470
-97849
262861
678132
-266262
1.07779e+006
-360640
-571324
1.48233e+006
918245
570712
-580658
-1.5594e+006
-825742
596628
308427
274754
1.04531e+006
-126578
926167
-707536
-1.20892e+006
-603668
-469825
812615
-42447.1
536672
-901533
-599972
1.09735e+006
-457877
-259466
-803239
1.69147e+006
-1.80606e+006
-1.21844e+006
-504946
920404
-230598
585275
12175
1.39751e+006
36163.9
681862
-2.37722e+006
673478
608392
72815.1
-656639
557988
1.63139e+006
425129
1.13134e+006
-2.22423e+006
151590
-1.41856e+006
-472936
1.04811e+006
-317804
115836
-213341
124702
-356562
-435656
969666
148764
-1.18998e+006
-900118
633666
878222
-451703
-19260
-1.37258e+006
-75390
-481864
-490281
540015
-384783
-746366
51071
290737
-267986
-203903
-542151
-1.27042e+006
658617
-296868
873756
12036.9
-203239
-695809
12573
139073
829223
883896
-520834
-198103
533321
1.51926e+006
-442644
-725341
-573295
1.17511e+006
703472
577044
-103870
-1.56583e+006
449742
-858417
40888
260122
-80445.1
-630263
1.52175e+006
-650913
822885
-144264
-444811
588748
-593112
88040
414506
-808978
-673899
-89505
269157
1.34308e+006
301676
-79196.9
2.09063e+006
472101
570207
-121642
-232594
-272177
343586
174896
293500
832528
1.06661e+006
455104
279593
1.38052e+006
106134
-621059
1.49496e+006
-583292
735967
-1.25232e+006
1.52573e+006
-476741
-608946
-205389
575164
-288931
-1.55085e+006
423746
-482568
231627
608624
438213
842714
-82980
330486
-626742
191523
-1.38697e+006
1.24473e+006
-120326
865889
-1.7261e+006
1.26412e+006
-346622
411684
-514420
3673.96
1.25029e+006
-1.70182e+006
771080
-905925
-771323
334313
190873
2.28492e+006
739142
783776
-1.75406e+006
175088
829603
-1.07264e+006
-1.23106e+006
-524547
223627
-189758
985734
-803240
280433
1.17363e+006
80908.9
-872582
665431
-1.0017e+006
1.76077e+006
-935647
-863158
288957
-1.17015e+006
-513252
2.13111e+006
620725
-186355
-872696
304304
162957
212639
398565
-1.98815e+006
2.14616e+006
-803902
248111
-1.17939e+006
43553
-182176
-327797
447664
-891997
717505
124505
-498586
177190
-391819
-2.09262e+006
272598
732413
343934
-1.74869e+006
227186
-504408
771985
-256347
146526
-1.37076e+006
-57923
2.62934e+006
510492
37022
216510
-109668
474836
310431
895273
-915410
1.16481e+006
-69808
1.47134e+006
55320
625110
228542
-1.35497e+006
-81731
-8468.04
-305033
10440
1.26749e+006
437024
-950642
-520190
-921132
1.0819e+006
-85415
-1.34708e+006
575111
328456
294464
706377
345744
-135562
-502179
-50429
1.1164e+006
-884839
854408
-642501
935550
377810
-337052
585754
546242
1.70386e+006
-97949
265043
191900
5165.03
587702
-789961
46210.9
-1.06938e+006
560485
320978
-594607
-1.39429e+006
-301538
-118831
65386
1.67646e+006
-2.02474e+006
-541299
248528
562547
169139
1.51447e+006
820762
-1.08442e+006
-190935
729027
-598173
-1536
501203
220998
137284
567491
235165
-475845
-92835
-1.36014e+006
1.54776e+006
-939079
-499294
614323
583374
-396156
-867912
-610592
921862
-77052
-253799
887076
890872
-530286
1.02402e+006
1.87046e+006
-911081
-313406
2.62682e+006
404327
553066
-249129
277104
1.07566e+006
-595145
215124
-550565
-907070
851509
31419.9
-1.21412e+006
510530
207393
-85186
343484
-433731
-952840
225154
449211
176334
-530368
1.02816e+006
-617143
622522
-922938
-647818
716064
43071
-304721
-263632
569685
1.32107e+006
286624
-1.61726e+006
946519
-471729
877463
1.31624e+006
-462019
228253
-671049
-661122
-723925
615400
592785
-644601
1.12138e+006
-422635
-82097.1
-140868
858059
-1.01403e+006
-29723
-1.33335e+006
171591
-689465
-168241
-216284
-411319
-1.44036e+006
-335234
-790488
549780
12769
-340097
-515968
572548
-353699
-1.60083e+006
336706
1.67384e+006
-128953
-1.63239e+006
-480375
100619
416528
1.51205e+006
-1.67365e+006
-729502
-742232
677707
-241051
1.23175e+006
1.68052e+006
-554075
648278
756291
106784
-269452
-554407
316136
-210301
-133052
-1.1776e+006
449932
-93291.9
269128
-976474
10507
-329339
747120
119012
453243
-764133
1.66803e+006
-433444
368779
-357987
81076
-1.07155e+006
-464391
641158
-852420
780960
1.079e+006
-640974
1.00872e+006
2.11165e+006
315058
779848
-752136
729287
338106
200214
-1.09993e+006
372950
239537
445042
-440433
-168853
1.245e+006
48852.9
-766272
5715.08
-751539
-1.48169e+006
453237
-964691
351736
60193
-1.65726e+006
955472
64322.9
-21599
-289839
430781
588909
351736
63994
838873
1.11705e+006
-517331
-2.13325e+006
1.29295e+006
1.9767e+006
284119
-581687
-639215
498251
-466216
474336
-660181
364154
-785562
-408684
-128207
152629
-923744
-717672
-973656
809177
521498
211247
-544725
-209442
-199754
1.19417e+006
-514144
-761713
-268331
200374
-322776
-34513
139612
-633935
342974
70884
-99882
-328997
171443
112573
-1.17188e+006
900830
-1.17344e+006
626284
-999265
-282288
620831
-418594
1.24018e+006
740177
358209
-343744
429400
-933460
110364
-771196
-595805
-667879
154539
1.1612e+006
-2.50857e+006
93425
915223
697049
-225760
-752489
-867128
1.10611e+006
157388
813395
-384645
-83041
872631
311749
656098
-472640
716834
-813613
436237
361242
-608418
142312
-58693
303795
-1.35582e+006
-1.18044e+006
-196903
296111
203803
329181
-1.59039e+006
78386
2.44898e+006
1.15215e+006
-231838
743320
-1.19597e+006
759917
841983
-853796
-706147
950020
-386875
-1.07911e+006
56498
-611776
157026
-898755
-420129
-1.94694e+006
1.27759e+006
669617
319803
-1.31961e+006
-1.41733e+006
-286867
-765131
-11023
90304.9
-124949
-389517
-407189
-1.16886e+006
1.89907e+006
-68032
1.2759e+006
-456950
-420631
433222
-433352
568855
83476
-1.27961e+006
483060
-1.60278e+006
-1.65706e+006
-977210
1.60082e+006
556654
871690
-315105
536282
-791865
-70735
-360957
1.05587e+006
-1.20604e+006
240767
-219286
543196
-576038
366830
1.19114e+006
515814
-1.70014e+006
-215743
122279
-257457
-1.84571e+006
-545411
620001
329175
-1.10964e+006
395679
273316
-473915
191190
-808971
-64171.9
-721352
486194
-389173
-1.87396e+006
746089
-395089
-853942
819301
-229802
-89059
-110912
-76810
858233
-1.43131e+006
-891690
-140445
637982
83403
-7285.94
-218679
-331415
-577513
-890296
-10474.1
-225056
407396
-385782
1.26938e+006
66050
142108
-207354
-1.77087e+006
-720221
69161.1
366915
-281523
328391
-209395
354055
-315423
926030
388609
151917
2.12229e+006
848025
-789819
-1.59935e+006
111025
1.24224e+006
397788
1.01029e+006
-429626
-167262
694287
-223611
283272
471348
420598
719227
-1.45256e+006
-657644
454218
-488233
47021
985592
440340
683286
-556951
-1.76148e+006
327660
316973
148985
-584572
42600.1
-1.71096e+006
-874538
414376
-157846
-1.69257e+006
271404
3.00581e+006
235159
-1.71739e+006
-1.36354e+006
-177418
61742
88054
-48733
832156
717657
774205
1.01297e+006
-615163
1.77588e+006
-1.4643e+006
-689834
865923
-1.71466e+006
483784
824600
-628575
-568037
-47743
-1.67724e+006
-1.03921e+006
-141723
-383925
824306
1.73076e+006
924563
-402362
-584801
-85158
817692
1.1237e+006
-435275
-228104
630339
1.65073e+006
-476800
720850
-1.41017e+006
-1.3e+006
200167
-92982.9
-736179
-1.06678e+006
305847
541683
184713
2.24529e+006
-336725
-491498
-1.45194e+006
1.03162e+006
1.29361e+006
1.02812e+006
-1.50485e+006
-112258
1.15805e+006
-1.46216e+006
-885014
-441948
-726020
-188951
1.06663e+006
151822
193137
323796
1.50798e+006
390277
-1.23672e+006
-1.37801e+006
-536620
34293
147728
-1.33841e+006
-891902
-262043
365896
801551
245023
729093
440899
747649
-668666
687239
-77728
-1.26956e+006
713717
404876
-339922
21539
-209698
-112097
318571
954915
-840564
-555872
559595
168236
-544699
-263711
-1.35344e+006
1.01931e+006
-1.03052e+006
451215
581643
-619783
-429031
-177711
-667059
1.28723e+006
-975681
295048
-454785
-861739
-135244
-107996
778082
916323
-690254
-283675
-390243
746289
947211
101223
-492815
-783443
173325
-405589
-798371
591346
-1.86489e+006
-1.4925e+006
-431957
1.84813e+006
93167
-564447
764650
866782
-135176
-91539
1.92082e+006
-953941
712231
282842
-166634
-2.36716e+006
239537
-572163
-369930
-1.6922e+006
-473252
-1.65283e+006
454099
1.43789e+006
-86942.1
-707791
-232798
-285384
-2.05453e+006
1.62761e+006
-867941
903935
-40305
-29219.1
-943938
221229
-417168
-1.61075e+006
502520
17129
-16774
377297
1.6746e+006
-393348
956127
-1.00688e+006
211521
801395
-367761
1.12325e+006
224945
-2848.02
55673
245064
-667298
-1.52162e+006
-846820
506512
-280234
758098
87526.9
-929577
155118
395040
-1.46536e+006
-917336
1.09959e+006
-297198
-225201
350330
-378479
520628
-434114
-850870
54174
-1.36127e+006
1.8778e+006
101289
605769
373014
-31981.9
371751
-1.03188e+006
-1.49432e+006
1.0951e+006
-567685
-374583
-188578
-84814
1.54215e+006
1.31769e+006
437880
-298252
-457247
304959
-696312
-144379
-1.3921e+006
-431255
-1.83161e+006
-509447
-1.21221e+006
186041
-617301
958944
418311
-342954
-382759
-870762
-5294.99
27256.1
671925
1.44525e+006
923729
414232
61696
-774826
870351
-1.03346e+006
294573
614575
-794044
819403
-1.49989e+006
-194079
-14759.9
-813632
354000
85102.9
-570969
1.25574e+006
289015
628538
867089
-2.67387e+006
310559
664897
1.94233e+006
-214485
-274193
843748
432000
-51778.1
175030
187919
-20344
-22339
187656
727832
-634265
-138612
-775587
-800031
-822689
-698655
1.02474e+006
2.02352e+006
-176405
742377
-144512
-113161
480563
410261
-586642
1.29842e+006
-905897
600443
-886989
169182
-1.40893e+006
444810
508606
-815828
1.06275e+006
-681160
-1.09602e+006
1.5058e+006
-200645
-792956
735008
-1.33347e+006
-576528
956700
-602998
42250
-1.07702e+006
628857
1.33788e+006
402280
144876
830661
436992
-557108
-934204
-387952
-447095
1.05499e+006
-801066
-1.18964e+006
-1.95178e+006
-17569.9
-125356
-1.23628e+006
1.32462e+006
-980777
126560
724394
-2.18977e+006
1.23889e+006
-848440
-582647
58404
1.00013e+006
644110
-514956
1.22279e+006
-855786
572292
528722
-232937
602206
558931
331415
243124
697941
177978
881361
-1.11536e+006
136211
-315824
800279
-67580
-2.17814e+006
471946
55681
-1.42194e+006
822713
-59579
244206
971994
307566
42233
881360
1.15329e+006
312204
-810572
398905
-404334
299587
481441
768386
-746468
-307148
-288320
-865901
-543329
-305673
2.15363e+006
1.79459e+006
-397756
658222
1.7789e+006
-1.01642e+006
89702
-425471
-1.47209e+006
1.82208e+006
-796125
900251
-1.06721e+006
-119674
-853467
-55982.1
-1.22779e+006
794793
1.18524e+006
73929
-422678
749947
309823
-370836
654742
-1.45586e+006
697794
1.20313e+006
688201
138469
20679
1.65881e+006
495608
-947812
-711442
1.30672e+006
316474
-2.31228e+006
468782
122671
-1.33274e+006
56958
-1.08032e+006
501543
-620400
-87665.1
931791
-1.9954e+006
245134
-1.80526e+006
457980
-1.10449e+006
-852066
-352715
-358691
-2.25612e+006
-912148
924406
501249
-414509
-293163
1.82316e+006
1.72149e+006
41102.1
102658
-522000
-750402
374983
-923013
-729904
-188069
-1.4254e+006
-1.05664e+006
1.96208e+006
1.33814e+006
-1.64126e+006
-597088
781814
-224761
-41411
710840
385570
45039
65800
-375795
401573
-706584
615629
-99730
649678
525123
-515348
772626
-1.03034e+006
177671
756574
685644
590641
587770
-359629
-254342
-354026
992620
-1.64757e+006
423062
86514.9
-1.63165e+006
-472502
697248
4328.04
1.51542e+006
449692
-1.74133e+006
-815027
-51005
1.29891e+006
-786962
-2.62167e+006
-14863
-324317
-261475
349840
323976
22822.1
504498
628973
495606
54958
-405970
-37709.1
-799046
-80309
132940
692160
400305
-520382
410652
-481327
226799
973003
69084
-127747
-85419
1.24422e+006
-179775
-19760.1
-48416.9
369898
-1.13433e+006
570017
524880
247853
1.23912e+006
-368182
72573
-178721
589523
-1.03192e+006
389445
-712734
1.13251e+006
690264
401180
-1.93863e+006
457596
571809
880713
874187
-622977
623916
-825908
-1.77757e+006
-406064
-624197
791269
99077
306132
-566168
-1.11165e+006
-99087.1
-25880.9
-72966
-732641
1.83175e+006
-133006
-2.02951e+006
-34841
-567959
129652
623931
-24002
-1.27241e+006
466880
1.80383e+006
621494
-86851
517500
380212
559887
-673491
904956
-36068
-154595
-1.51261e+006
-306844
-84928
387234
-1.3751e+006
513005
-351546
-87721
-774055
481962
31485
-745731
-99289
256673
-728312
-111693
-679731
1.42644e+006
-536426
572799
223670
-2.18041e+006
-270085
614857
-551166
-296073
1.75002e+006
-932624
1.52939e+006
-265782
114115
-635609
-398876
-131241
-1.61393e+006
-173443
-715677
210321
887485
22616
-822445
661631
-540258
696620
-553599
250128
-880651
414731
635147
444407
703572
-248744
798045
39189.9
-1.52982e+006
841238
-1.01174e+006
512862
1.33173e+006
156364
462713
653165
1.6557e+006
-1.29164e+006
-631405
356397
-769155
-1.49699e+006
-200030
-923656
-1.41945e+006
153021
1.35325e+006
-194026
90692
-400122
-499309
719145
390283
1.00777e+006
-505547
-233100
-122368
528379
-274462
389934
518748
130919
-79052
-550722
63418
-662991
-173081
-1.85401e+006
454170
-709934
-417370
98983
-462713
622687
-1.21461e+006
-311677
-791890
450403
521722
213811
-810646
938688
225133
-1.04003e+006
1.0515e+006
-643977
-1.06867e+006
-1.59178e+006
-18846
514405
-947669
58510
-619759
1.1215e+006
-374819
1.26695e+006
90601.1
-273271
-628288
-1.00908e+006
-1.13769e+006
-1.22947e+006
1.38469e+006
79294.9
397355
39935.9
-1.3384e+006
279687
-936113
-487831
-50140
208953
-523115
301863
-266675
-1.13835e+006
-411590
423393
361549
-842200
30416
-215122
772446
328185
806743
122672
466514
391192
494709
98877
-146827
-1.34762e+006
626950
863547
856231
-425373
-195365
758790
261610
397319
-1.34844e+006
595647
2.02647e+006
148239
256630
-1.42279e+006
50528
110306
-428029
-817363
62829
610090
-760097
37130
-89111
1.10282e+006
-19883
524425
-294385
-646541
1.51509e+006
-201229
2.03405e+006
126850
934617
-878586
-40015
-288963
-259698
88265
-41646
656954
4868.98
-613349
405442
-669368
-370992
-307535
-1.28799e+006
-809350
1.05561e+006
483995
1.01008e+006
-14485
305647
-36249
108456
-635193
420391
661627
283599
327816
564043
97831
862481
874430
-792047
-1.01853e+006
-1.40044e+006
294277
677193
23164
1.16577e+006
-265269
-186233
-859077
-617210
-150652
-307834
-344212
642768
483614
337529
-1.27837e+006
-343314
851662
1.16525e+006
-234116
-233479
-374096
512934
-900336
-257663
121474
635059
1.03594e+006
530223
-1.83921e+006
255972
-309055
-2.14019e+006
-376033
-1.37318e+006
-365372
273036
-44173
-1.11347e+006
385515
158450
336689
1.12392e+006
-710025
1.61169e+006
-330434
1.032e+006
71750
-737756
209647
572276
-416636
1.92977e+006
-1.65092e+006
225992
-47669
395903
-226872
396773
779844
-1.2724e+006
-986877
1.02783e+006
1.003e+006
-790021
336843
-681262
726896
-325882
1.30181e+006
-1.60046e+006
297247
367760
-488718
-638080
754046
257625
-3.57664e+006
-2.25886e+006
-1.12686e+006
-1.66932e+006
64200
-980213
-702981
503417
-69374
-96348
133571
-307486
-44431
867769
516344
-833617
765475
-888079
835785
-971824
-1.49729e+006
-294001
-1.1128e+006
1.24442e+006
-331955
-673745
-125514
-88594
-948027
-194136
-1.19782e+006
130033
-798101
294316
-396728
-391600
-230994
-140063
-319692
318776
-455131
-668779
-494098
251977
-343276
-1.25025e+006
-564696
427382
-1.53377e+006
827789
234000
-336494
-802515
-6571.04
-1.53308e+006
-250123
-1.47763e+006
276047
1.56859e+006
-714230
-575373
678346
-1.4024e+006
-975917
-46336
788866
910288
-433263
-690667
-871837
-543301
42331
370977
-236460
-442163
229927
34990.9
-577491
612181
-826698
-402875
444551
10262
-180837
-500507
-802385
138705
-2.04857e+006
-816340
844627
582077
1.46319e+006
881264
559174
863778
2.31126e+006
-6875.05
-391755
-1.95006e+006
114659
399297
420066
-664447
385497
906581
-75269
-31490
-101770
694253
-836925
-3886.99
308213
-329371
-1.56515e+006
-428578
30121
-406269
-360536
2.58605e+006
1.45253e+006
-1.13767e+006
-182782
237873
257816
-352928
-823164
1.56287e+006
-1.52554e+006
-216648
1.45779e+006
-903986
898817
-633334
527133
-900127
267038
-1.20834e+006
-1.04003e+006
-1.13623e+006
-279867
-227403
52813.1
62847.1
-1.33988e+006
522377
-893149
-149211
164558
-733548
-1.18834e+006
-841681
-826621
-364400
472636
255663
-545423
315478
349036
-76210
720207
-1.31056e+006
-312418
1.24663e+006
-1.38902e+006
-894397
1.31693e+006
-176010
400136
-1.20784e+006
-13855
67640
-235174
-174269
-2.23288e+006
1.27385e+006
-864706
1.09692e+006
-624098
879218
695125
601620
738086
-275788
512351
-104291
193803
31079
501128
1.10872e+006
1.21211e+006
658026
501456
802202
-76135
397848
-429486
-1.57656e+006
-945199
242809
1.08727e+006
1.03201e+006
1.11977e+006
342490
-1.63196e+006
-489054
1.12951e+006
-124736
211430
1.06441e+006
1.66696e+006
464728
-135583
-464825
251103
1.87987e+006
-915433
-388370
1.12088e+006
-1.08012e+006
172980
583445
-827637
-164940
-119280
106997
590275
-129351
-794890
541211
-465243
1.43876e+006
236218
-515861
-1.40901e+006
-187067
-310823
587986
-661230
281664
-603472
106890
702475
-29060.1
376426
1.39188e+006
-845076
8603.95
-679524
-1.16703e+006
370626
569436
-292438
480289
-675170
-1.34216e+006
-368535
955745
783158
-758553
818900
-457255
-211951
1.30207e+006
-104305
283816
-1.19444e+006
-1.59198e+006
-314636
357272
34674
407529
-294507
429538
-443446
-103618
949856
1.31731e+006
-701.03
1.14615e+006
418352
1.08465e+006
2.73328e+006
-236356
306435
1.78006e+006
208407
88934
609722
-725182
126390
-176270
-40709.9
652039
652183
441425
1.09146e+006
37243
-1.14495e+006
900965
223677
145879
-119017
-120326
-931176
-555746
1.12307e+006
176869
824200
-724546
613368
660145
397604
-395617
-1.81689e+006
90932
-384071
103248
-995125
231335
-792519
-635968
1.2506e+006
120513
369695
-1.61499e+006
1.06955e+006
-921660
-864163
-1.90782e+006
70766
1.19222e+006
57458.1
1.55292e+006
281573
-1.1026e+006
-1.10311e+006
-625561
1.18069e+006
1.13436e+006
-825458
691129
719861
-9986.03
-1.21224e+006
-1.5169e+006
212104
1.46029e+006
-460441
-775273
1.12107e+006
-126206
-575042
-285026
92809
406027
1.44531e+006
-843273
728995
-480583
-800679
245835
1.85317e+006
822449
845077
-1.23118e+006
179148
-315298
-500935
-1.09497e+006
513408
-651910
-169877
-757268
768071
-351695
1.208e+006
-943796
-1.18455e+006
546938
193593
977727
1.32594e+006
-238729
1.18745e+006
-615320
-735466
-1.51926e+006
142932
-232695
1.1093e+006
270826
-1.1884e+006
-1.89619e+006
790803
-671659
-490490
-924490
930978
478211
833419
297983
134669
-255337
207292
-1.65784e+006
-1.56464e+006
-1.18891e+006
-361318
-810373
-782220
-536080
268268
-37832
-542768
-64913
-1.17942e+006
727707
167969
-78639
-537212
596926
101834
96268
-607427
16242
28749
-393013
-197983
-134868
76626
-784325
-1.07738e+006
-647095
-382738
-767730
-844332
-35423
-300555
535755
5189.05
372012
-65381
18223
1.54137e+006
2.10047e+006
585454
-297313
-1.41793e+006
-270974
316019
114672
-351345
-452484
276552
-50588
829137
-1.27793e+006
-211136
-889154
1.64976e+006
-478552
1.89392e+006
944097
-1.24693e+006
666991
1.34425e+006
-947708
-1.15226e+006
-145469
667024
-68154
-190754
-64380
430102
1.02965e+006
-1.16761e+006
-156082
-87075
155442
237258
225621
-499832
-951267
131284
626340
669294
-5714.95
327426
-63587
-278943
1.60507e+006
182199
-978524
-1.78037e+006
-133698
960016
-352188
-1.40628e+006
-706644
-150679
-83549
-564242
788511
-340084
-1.13685e+006
50684.9
344318
-1.71704e+006
-519086
619812
-960475
-1.88819e+006
-315158
-1.13115e+006
-186985
615108
563784
988068
-672022
582727
-938138
345100
831387
-427636
2.12896e+006
1.2118e+006
-219447
-770658
154085
75159
-267292
845230
689559
291505
906044
400240
304126
-323439
-1.15188e+006
83854
-313689
391587
-739195
210045
2.29172e+006
54338.1
352780
650276
-45926.9
-32828.9
521722
-360726
-922713
249835
580280
-161767
-340815
220850
308300
-882336
-372246
-61198
-328982
186609
-619760
-143311
-692714
468936
172099
-108814
328427
-170279
711539
708798
886556
-462453
66948.1
-544455
-109456
460531
-1.26606e+006
897375
734186
-5203.06
-841881
579579
457076
791467
-294971
-865519
-368487
-236894
766425
1.27779e+006
680465
406617
780325
-946070
-426896
466291
-898507
13091.9
-97629
87281
1.54376e+006
288403
-627028
-512245
873850
165252
-649338
851204
242975
526911
450918
-1.08897e+006
-1.04105e+006
1.18729e+006
1.0633e+006
431716
-459525
227259
-1.09869e+006
-1.0596e+006
1.00654e+006
988378
-890188
-448039
-1.26647e+006
1.3e+006
-913003
1.57948e+006
190351
1.67359e+006
-691043
-302730
-123222
1.25201e+006
-407780
-254586
-166891
-515646
-1.20812e+006
-962977
998734
558326
-337164
-133883
-458752
1.77915e+006
200686
1.97856e+006
777555
54943.1
-566507
675313
-176398
-660582
433661
338599
378164
-1.43354e+006
-453210
1.08056e+006
664802
502213
-960576
1.93325e+006
-1.20681e+006
1.21563e+006
5986.95
53164
-700294
930408
333009
-1.0714e+006
15604
-645636
-524846
158109
-1.81936e+006
340003
232331
1.05477e+006
21984
152073
1.24989e+006
-108590
1.0121e+006
775318
-341498
-305859
-1.55931e+006
-936977
1.54648e+006
-2.15377e+006
-559171
-164393
-722805
394189
-549091
617964
-269994
-910040
-473758
870530
699127
184458
20183
876852
-864055
-297400
670844
646644
194402
783443
-522654
-183043
491874
-137619
-189568
700923
32562
145421
-185519
-282603
1.27652e+006
813345
173322
-697894
73775
-578985
232868
-448256
647682
-238421
-432299
-195035
589539
-19420
275000
-517275
-1.18313e+006
411148
747511
136579
687745
-190499
951043
-445345
342908
-176290
-1.86355e+006
1.28144e+006
-21987
144401
250314
-1.22074e+006
-1.30993e+006
298485
-333225
7069
-118435
188280
452256
1.04439e+006
-112034
415132
-1.55879e+006
-95188
-497853
438939
-928194
390352
-696281
-330361
699218
398406
-940619
-326028
973549
1.31841e+006
-398879
553148
-338161
265281
-1.89557e+006
112674
782054
851600
-1.49976e+006
-145647
472864
-85408.1
-725088
353337
643707
-699928
-317005
-1.19315e+006
-652701
-575136
386737
539720
-46614
1.74114e+006
-56135.9
943443
2.00863e+006
-1.17527e+006
-287286
44449
353168
1.15754e+006
-1.63275e+006
134091
1.48664e+006
-229831
800316
722495
165771
452996
819861
1063.98
-128325
-201282
-335983
-94207
121411
-63474
256745
-15714.9
-634630
-546512
-1.02894e+006
113637
-235887
345002
426641
773655
-1.62648e+006
-705316
141693
-585668
-57917
747710
725812
-1.0267e+006
516388
-28213.1
184902
658392
1.96149e+006
-58611.1
-1.59696e+006
130562
-768567
-1.07674e+006
251477
1.07259e+006
1.24287e+006
957885
769062
1.66442e+006
88549
-513563
-56598
996728
80908.9
19111
355503
1.4436e+006
-628149
-1.52445e+006
-939372
1.65555e+006
1.03527e+006
972696
-388105
-252783
424620
141737
1.8379e+006
-464215
-268946
-201307
-209961
-454338
-478739
-645269
734500
154498
65527.1
276011
390864
-721436
-389574
71765
-1.31874e+006
-1.72574e+006
1.40505e+006
-1.58619e+006
1.24263e+006
-513888
1.32075e+006
-742436
-705690
-794364
-282445
-1.07042e+006
586794
376321
-2.30341e+006
-41935.1
-1.14894e+006
-2.8359e+006
253252
675543
-1.33062e+006
-1.17483e+006
-833811
-294400
-1.21483e+006
-810661
-1.36083e+006
-738051
651420
979793
47314.1
27225
-1.19901e+006
220296
1.55017e+006
-436112
961917
1.11782e+006
130838
-114985
919421
175515
475939
-50848.1
343668
514226
230894
1.17116e+006
4340.97
-30850
670462
516844
-264430
998073
-657258
447821
-221329
1.2222e+006
1.26095e+006
740164
-200244
434095
-422697
-4808.97
3.99193e+006
-625522
-40065
1.15642e+006
386708
-59823.9
-75822.9
764282
99897
-309117
-1.27078e+006
780429
-1.95314e+006
-470508
-1.06471e+006
-477245
-1.66788e+006
728622
401469
-790577
373366
-1.28892e+006
1.35029e+006
-750295
242770
-10115
-989089
1.86868e+006
266913
-875641
830514
289681
-360225
-29486
-1.8169e+006
296381
-125399
282220
-889306
90058
787448
-61197
-291138
-346558
-97626
-546763
799595
1.08892e+006
690997
-763363
-918370
-1.3242e+006
895740
-2.29199e+006
-1.12208e+006
-4553.01
-216346
65614
-577883
-537212
65421
-843166
-1.64276e+006
149527
-1.45825e+006
105127
727595
723437
-1.07276e+006
240740
545309
-10748
-152821
1.14666e+006
561005
-312935
-1.96907e+006
-746172
-158274
-572231
8131.04
-398212
371505
953895
120884
-440330
1.73173e+006
1.27284e+006
569997
439769
436011
1.20569e+006
-53852
1.172e+006
-237211
314894
-274138
-100259
866954
-1.08279e+006
-325330
-420777
309334
-281297
1.15069e+006
1.37e+006
872795
72065
203854
-1.11617e+006
-646961
-44438
-184506
369617
-1.5491e+006
-1.0069e+006
-1.38366e+006
-1.64822e+006
119892
-244538
488746
129216
515292
926006
664979
756404
221521
85385.9
1.5483e+006
-696742
-1.25914e+006
-100844
603187
-153036
87358.1
654475
320872
-217511
326798
-51641
1.15757e+006
1.16611e+006
407982
-47860
-1.42146e+006
-301453
-990812
-1.16155e+006
981370
426731
1.89664e+006
210569
-215158
30220.1
-403602
-257033
-323480
-1.67525e+006
710685
1.44453e+006
2.14361e+006
-178313
98935
-541837
-1.3809e+006
-1.29733e+006
528190
-657286
842908
-351654
254048
56049
1.9108e+006
80066
554629
1.4944e+006
690884
1.08608e+006
-800804
-515277
637195
978373
765682
-124828
917046
374191
-344169
416350
-257404
-459839
-1.1104e+006
56293
836939
-1.39087e+006
987826
-357672
351585
1.5218e+006
-2.39992e+006
-29518
-80654
1.24721e+006
-481586
-170474
-739964
1.44058e+006
-294134
577738
18939
375576
313295
-1.08191e+006
1.24544e+006
893801
47371.9
854748
535876
-768451
636483
-434880
417833
-560232
976820
878847
551451
-649199
-1.07515e+006
-1.07621e+006
-2.01151e+006
1.73615e+006
-1.89809e+006
2.18101e+006
-5933.02
-1.20741e+006
-434142
-587062
-555552
-398964
-1.14435e+006
158868
-740073
2.25542e+006
-369904
-458816
103481
-5027.94
775819
-963214
286287
21218
-273834
398858
136364
625787
-954499
702456
1.20616e+006
-409419
-2.26722e+006
593145
-759579
-154117
904238
-1.56684e+006
-471866
428891
368531
-800142
-582706
284800
-559164
502067
1.00475e+006
34238.1
-930790
985463
292249
-109227
1.24356e+006
-618788
-1.04091e+006
1.38415e+006
888180
-701839
-194918
-869524
817698
-427705
290620
-283890
-337240
-1.346e+006
-947144
880340
619119
1.7895e+006
17702.1
304162
-325730
8141.97
-743893
-1.15863e+006
506780
875363
-436142
-437818
408283
-599433
-593711
-340071
-171921
294499
-824549
-1.43838e+006
-123967
269218
-290889
1.09073e+006
4585.01
1.61417e+006
502047
-547843
517835
608163
157608
-1.13426e+006
262675
1.414e+006
1.08702e+006
-816033
-1.10428e+006
1.09497e+006
185020
-1.77487e+006
-697764
488447
-151261
-796037
463372
1.11233e+006
-142321
-263280
162118
-746985
-476438
662461
782361
1.33431e+006
98060
-1.77853e+006
1.15754e+006
300225
895796
-517744
-103842
-1.12219e+006
257978
-1.20862e+006
-82116
573085
-13396
-367471
-212336
-555355
624327
747163
732283
-967743
-992066
-377992
299410
347993
790659
1.24975e+006
3.27442e+006
-1.57442e+006
-577282
-98703
413502
194929
650650
-34063.9
189636
1.18034e+006
689033
442618
16831
-89230
1.69138e+006
-510419
-844933
1.08239e+006
-630349
1.08984e+006
-1.15545e+006
-392741
-7127.08
2.27767e+006
728524
-211858
243878
422324
1.10264e+006
-794497
1.02479e+006
239097
471123
-51051
-231138
-307371
-212964
-754579
782287
706347
564910
82911
203777
536766
195741
-126652
357201
-132059
1.21598e+006
-1.07711e+006
-925994
-434539
14692
610705
-739305
417003
-540684
805134
-1.0274e+006
632379
-153438
-441608
-191306
1.44212e+006
-469744
-1.85433e+006
-335061
1.20029e+006
-49463
444994
202929
383545
-560619
-324048
631061
-544976
-308851
170715
-330993
-279017
376125
1.00488e+006
-1.35313e+006
244615
-340308
760942
1.03856e+006
-773426
-268357
-198655
-1.4101e+006
-618592
-305994
-577164
-469787
-705129
-106411
-519107
-31628.9
1.44064e+006
1.82068e+006
-1.80173e+006
-486003
-934468
375310
63579
-1.82255e+006
-573772
536598
444187
788409
1.22463e+006
398487
1.66406e+006
1.20203e+006
38356.9
-49714
76414
-521544
-573110
1.41752e+006
718076
1.28758e+006
596892
326708
876281
-1.59287e+006
45890.9
14306
-1.32081e+006
-1.44877e+006
-298429
1.43991e+006
-499873
-1.01029e+006
508531
1.15927e+006
289981
-441987
-89136
980829
-768888
-751407
-1.42428e+006
1.09072e+006
-486995
-400993
-818224
-511453
599163
-1.54106e+006
671673
-995792
-644800
-638958
-706900
523555
333237
-103593
-378361
-106341
-910354
-217073
-479095
-1.0314e+006
-752647
-633849
392974
901075
-902157
-902734
-1.08744e+006
-549114
-1.36681e+006
-1.3897e+006
600657
-1.06983e+006
336970
-333905
230873
79931
-1.14597e+006
1.11884e+006
-153325
1.21581e+006
-11367
-413108
-363818
-3634.08
1.25832e+006
1.56201e+006
-1.8338e+006
326334
89488
-215805
2.21664e+006
-173738
172354
-1.0238e+006
-265368
-573135
314396
-655311
-132578
1.34044e+006
-411206
-210161
371888
245770
191349
-427699
281305
-1.46106e+006
-2.56099e+006
-679442
771206
721855
-1.70529e+006
156062
-235957
-1.41354e+006
-660523
679713
722711
-1.01809e+006
1.8983e+006
-347688
1.12229e+006
455084
263094
-370285
-652832
1.05487e+006
725541
-210258
572094
-825761
-1.75556e+006
343472
514883
-1.34978e+006
-643655
8879.04
-247874
519714
-2.14248e+006
-127800
-625516
38378
-51348.1
-530003
1.26562e+006
501737
-257304
613546
361848
1.17576e+006
2.44109e+006
-983307
-1.23869e+006
-474160
1.42388e+006
-1.08042e+006
-175947
971388
-1.40884e+006
-396192
-257709
727707
530513
-326320
-817459
1.89503e+006
1.15673e+006
-654987
75739
-201259
-1.2937e+006
-2.14629e+006
67026
195963
862658
240688
-17071
273402
-1.04346e+006
322209
12532
-902266
-238951
-873681
-686364
-420766
-1.09387e+006
-1.4901e+006
28544.9
315375
274226
-263486
-281208
408961
252849
-589949
-273637
100651
666282
-1.0163e+006
56719
-994485
-359081
1.0189e+006
-849404
747658
77029
276479
1.18651e+006
144563
350342
774484
-248682
-836824
-509598
1.43434e+006
1.46068e+006
-1.08955e+006
397703
-969614
559640
457607
-206282
729850
-534670
-408227
601190
1.28381e+006
871440
376759
-257269
618576
85565.1
-520138
-510249
608729
372280
-358990
127940
12639
51414
-1.31279e+006
-409083
123567
653076
372722
37435
1.69522e+006
-1.86224e+006
97131
-509138
-73529
2.35614e+006
-333936
357304
-585154
-214105
515621
124872
-210329
445994
-588047
-483586
75189
-1.36437e+006
124809
661974
330711
1.05696e+006
260840
-931970
-733268
89589
-376016
-459537
-597416
205456
619174
-560363
-596157
-823827
292063
247950
682889
533254
820407
-663929
-12892
-617094
778509
551316
-41086.1
259351
-887626
604100
-280544
-867280
-14150
697289
131010
1.29845e+006
-988867
1.40854e+006
-937720
-797549
98540
1.90308e+006
-1.09694e+006
-547198
244787
-1.40845e+006
-376386
281128
-549016
-2.3394e+006
112015
-698285
352614
904694
659592
36349
-181323
176049
101739
90827
-649932
-60191.1
-615086
-210104
1.08051e+006
-933787
647492
370288
549189
1.20779e+006
-20054
19024
211940
-524054
-247372
-1.18606e+006
548406
577157
470587
105366
-687469
294995
-127570
-372545
-674317
-275860
117111
1.38929e+006
-406530
186932
-1.21163e+006
1.84318e+006
-141041
530170
1.22213e+006
1.41182e+006
-824108
-844602
53214
853849
587479
-782635
-240008
-66197.9
-266111
-507259
2.0228e+006
-595427
809969
-522754
1.06097e+006
1.17297e+006
-552465
-491616
877509
440946
171504
-904685
448120
-824192
-170503
685591
172984
-689560
632667
548181
755372
-1.59597e+006
1.33745e+006
766642
1.12407e+006
31650
467505
-477167
62661
504649
790148
348091
651439
-826052
-1.44821e+006
-1.03649e+006
-499367
-518031
-218117
-258111
384142
16633.9
108461
1.05579e+006
1.02399e+006
-637070
266237
-1.81262e+006
1.48115e+006
-503156
-827014
459714
-159202
986171
-34451
-973371
-1.88995e+006
-1.12404e+006
1.45875e+006
-11283
211712
1.07083e+006
439369
1.31219e+006
-683213
619704
451237
-621175
514152
-384850
-139395
26975
-335491
-1.12239e+006
686923
-631260
1.96626e+006
542881
133459
-80582
-174473
-296880
-718622
433220
939822
-194904
45970.9
577603
805176
-778890
-249747
-490678
-934774
856112
-1.76921e+006
-395141
1.06085e+006
196368
553750
1.14718e+006
-464218
1.37035e+006
2.0471e+006
233960
313942
1.11953e+006
22288
302351
-351918
-269906
-644840
-869488
1.3136e+006
529834
451022
-127601
-40919
201134
660116
-628918
159326
-150346
175966
322331
335530
-966449
833481
-1.67121e+006
306233
-631973
-392780
-1.17731e+006
-911029
429507
-247611
-40341
1.31208e+006
669266
-274543
105642
1.1236e+006
-686271
499751
585098
-645740
115429
1.15398e+006
-339267
489216
709408
5070.01
766746
540589
-988597
-1.50094e+006
858441
716406
-162286
22186
-943303
468700
-400291
-90093.9
286555
-320742
268143
-323711
837347
677491
1.01988e+006
-846832
-517614
-220852
874274
103343
-322155
574489
-170453
-50292.1
526776
1.16661e+006
-110135
593212
1.37779e+006
-2.68398e+006
-258343
696762
536695
408404
633006
-605699
-11865
-164343
40639
-492082
-1.08597e+006
-43702
336732
241633
-199830
901834
106752
-12426
-62858
532666
586392
1.26915e+006
2.29205e+006
966991
-1.08494e+006
-1.24737e+006
618578
1.34253e+006
-79685
-718047
692062
-588868
-325774
49638.9
-90683
-433465
2.04315e+006
1.31993e+006
-198714
-533630
-904565
-259605
-343538
-164013
354080
192750
-447600
616981
937922
1.18298e+006
1.04261e+006
275458
565021
144549
739004
-345232
-835918
-815185
-33465.9
-3.2669e+006
-997869
1.11839e+006
242160
463759
-404124
-154202
-1.24571e+006
237375
379330
-241423
-1.00053e+006
229767
67097
-182522
952157
-445802
1.72862e+006
152010
-1.82691e+006
476019
205591
-116772
-174007
-527047
-326288
572764
-152448
1.92282e+006
-211092
895493
367826
372513
230689
738226
1.57559e+006
-254307
46552.9
-1.10608e+006
-829456
-1.33907e+006
-1.29456e+006
1.00006e+006
-121071
246694
-741944
273987
-584946
-805521
193646
-1.13742e+006
867195
1.44824e+006
575481
404390
336964
-1.67504e+006
75844
5652
61528
27024
-717254
367391
-962104
-140713
-91621
155688
-21111
-720473
-213363
571547
875810
930765
-523936
330409
241728
398313
-1.42501e+006
-419551
-186343
-564111
-527904
81984
563573
-162454
673817
-586419
-2.76408e+006
248724
16625
-1.73833e+006
1.33954e+006
244906
-215801
850798
451460
1.4552e+006
-148717
-632959
-410007
1.43083e+006
59280.1
-1.57604e+006
-628566
-505344
1.00769e+006
-1.61138e+006
474037
1.45821e+006
-247416
249592
-1.54049e+006
433553
-353444
104680
100454
-135401
-410259
327859
361565
-386650
2.19888e+006
-72281
-665736
971097
596370
502063
724886
-458957
922115
-744892
1.01131e+006
-632918
-805272
-534421
-582888
-354377
-268346
-640477
904527
-920177
-389893
-337225
-1.37197e+006
114498
941658
852051
-187413
58880.9
-226074
986812
951636
1.20233e+006
-716440
-6958.07
1.0502e+006
113238
378825
-500278
-256268
154654
918757
1.36099e+006
-722452
1.14233e+006
-178532
1.32243e+006
634230
-369451
497119
-18474
753844
-898071
797153
-374507
-763606
-1.33256e+006
392697
-261030
-664499
-246560
941541
73418
-377509
1.42836e+006
420035
-30559
-695536
-201330
-1.00388e+006
-583787
-936559
-1.16585e+006
-776070
68823.1
-402521
-317906
-882696
1.25588e+006
-795333
346119
990077
-229447
704421
14738
269781
-1.74872e+006
2.66145e+006
-1.66703e+006
-361753
138083
-518762
104980
-476741
544166
-988329
246301
102853
-105351
446861
-384457
23132
126473
-14799
-1.43274e+006
-325005
343244
400813
-267353
-490901
-516455
-760490
-257590
500258
-298608
2.02005e+006
3689.95
1.23046e+006
-1.02008e+006
212847
2.51075e+006
-688516
-190819
205835
1.17306e+006
236364
2.90367e+006
-803544
1.03653e+006
538270
-513565
727943
-510042
-1.74113e+006
932921
-636349
410363
304774
269260
-262088
74030
294768
-1.2561e+006
-117240
-270162
1.20556e+006
-516150
84393
935960
-78938
-644499
-530418
-259423
605054
-245593
170981
-182373
21895.1
301425
-663823
-428092
-528968
-2.12192e+006
1.14802e+006
-897073
1.3017e+006
835773
-163580
1.34335e+006
1.75996e+006
83216
811345
1.09294e+006
-757115
-699907
1.2692e+006
-1.14285e+006
-753742
-1.02654e+006
1.30179e+006
743652
276296
541335
446757
-543844
264455
-1.29885e+006
615751
-653506
1.2819e+006
1.89767e+006
629306
293173
612188
408569
25130
824428
1.18864e+006
892033
392086
929932
1.44509e+006
294776
525111
-1.48626e+006
-486837
-96520
1.29322e+006
-454651
-83719
327783
-355728
-594986
-1.10135e+006
974964
1.69417e+006
-763881
-321903
-437159
1.29458e+006
-356583
-268061
-667752
-14333.9
520953
-797826
-822870
-328648
181161
80148
1.04544e+006
-38558
746680
-1.28792e+006
162997
-200528
-441872
-39005
-442863
139504
383153
-345969
-1.06477e+006
201163
1.10111e+006
-851466
1.04782e+006
-308492
935696
436292
367988
-1.05637e+006
-319047
561771
-51274
780432
617135
-308560
-132777
526049
153256
-687337
-137750
-697327
-1.05905e+006
-731301
-81252
660306
-1.76051e+006
412861
-57199
201986
-335759
-265256
-178471
431829
-637281
376806
-1.14663e+006
354509
3.08335e+006
1.25884e+006
-908497
6552.95
-652846
53683.1
1.27079e+006
1.62028e+006
-333458
-1.34066e+006
-382374
146351
278742
-338856
265405
1.37918e+006
-232434
-79603
129100
-1.10443e+006
-805888
-404650
155157
637616
-1.01213e+006
-796470
-33978.1
-331855
-214153
-402668
280772
-334347
-453560
-418264
495296
2.22288e+006
-649140
401213
203513
-353785
-104001
635269
884354
90358.9
325514
-285879
-746839
-743906
17965
190566
682218
-685808
-826172
-1.10561e+006
273614
-320316
-124362
240648
25527
-329939
-27395.1
-1.06195e+006
169793
1.15006e+006
-796870
537535
1.5718e+006
98740.1
-289166
-740489
654003
-72584.1
1.00122e+006
-976771
755839
227917
396029
56596
1.76429e+006
1.07407e+006
-667208
393460
-116285
-1.23419e+006
232928
-401692
-73598
1.08175e+006
852289
565614
537897
367468
-681430
-445984
1.50336e+006
-1.90824e+006
119814
1.70632e+006
459841
-182272
-210236
-465203
-739819
1.18026e+006
1.46187e+006
1.12779e+006
-913425
320257
276511
-920844
1.05523e+006
-969009
-680001
620265
-1.04236e+006
780371
-1.15126e+006
-1.39724e+006
201091
-928140
-1.00674e+006
-682638
236464
-774976
1.52045e+006
-379868
-616412
-530036
-964165
-99315
-628988
-43363
909803
-148709
1.25605e+006
11504
34277
-820322
-122406
109135
-740659
298179
-923446
501204
-338935
1.32073e+006
1.73338e+006
209140
-1.39123e+006
655246
565737
816267
-205297
-1.34047e+006
384949
-22267
-349290
577658
-315766
-1.24463e+006
-109142
-275137
1.75752e+006
1.147e+006
-543064
879843
-993072
71317.1
-364616
-348561
554635
223669
415309
338666
824830
282578
-166078
492416
1.57236e+006
-210413
-1.03724e+006
-1.77802e+006
-326103
-852882
406724
-62063
646782
-308864
-642973
-638296
-181126
-307075
-311544
1.65649e+006
-592665
-114512
112833
1.21189e+006
-796454
472814
-337887
-761166
443740
-1.02027e+006
-224489
-82835
676902
225256
1.3435e+006
831851
-520648
84664
-417104
362620
1.50077e+006
527726
-1.15002e+006
805404
-124160
2618.96
1.15838e+006
904213
-940694
-582863
-606808
240160
322444
303398
1.23164e+006
-526998
-525978
-1.6863e+006
-485780
-115475
-2.39015e+006
678694
1.11164e+006
885241
-1.40265e+006
-1.45595e+006
-915460
516686
-328644
523236
-214834
593812
448044
-448953
-974472
955837
103837
-620215
213316
-409060
-248187
1.87872e+006
-956696
1.27505e+006
611349
291364
-766634
-235618
25669
1.30897e+006
-871080
-1.23559e+006
147687
353894
181476
299550
-495984
350128
-364874
-973159
977624
-364018
2.24483e+006
410885
-596653
838177
-580915
54131.9
547581
-441172
220847
-42186
2.16789e+006
233376
-318449
-227016
12803.9
-1.0213e+006
-436088
-86258.1
238844
75320
926390
-90831
752072
-278961
-1.04261e+006
1.24437e+006
-835810
-123329
336931
-726404
-150114
-283772
-683289
-192811
-1.97639e+006
-1.52015e+006
-1.01708e+006
491934
-257666
-732402
-363070
-1.79902e+006
-674404
375281
-949352
-295789
-1.05694e+006
1.07176e+006
1.18206e+006
278097
508020
-1.34725e+006
-682543
969437
-864954
666057
-971050
45793
754154
510110
-66128.1
887065
-30125
-440851
430937
584846
-228665
-1.22482e+006
-1.23705e+006
-473760
51501
1.33132e+006
-132120
-374165
-116925
-303838
-554859
-253594
-1.20828e+006
486305
80324.1
104029
-174193
-1.28391e+006
1.09599e+006
104804
490029
-1.03514e+006
437190
1.55164e+006
-454334
-1.47441e+006
-1.28113e+006
565606
-1.67561e+006
-2.10685e+006
190741
530194
1.37137e+006
1.22204e+006
70968
1.14969e+006
-90107
838407
-68426
-3330.06
756242
82905
-526236
1.40014e+006
254159
1.75968e+006
-768040
74065
1.05535e+006
-36602
1.51152e+006
352153
199592
426394
402373
111546
-614707
1.31855e+006
280690
823903
1.72284e+006
-82813
1.16787e+006
-278473
-46020.9
-658528
-495413
1.80593e+006
540710
432266
-1.29864e+006
-400119
-79228.1
163747
-19674.9
683659
525918
-83693
600017
816639
3050.96
-107078
1.0711e+006
-419768
-461733
-699827
-321752
594854
-325631
-293449
-1.4194e+006
1.21586e+006
334906
1.59509e+006
1.25469e+006
-713063
-1.52145e+006
-311153
55929
363467
1.09657e+006
202568
-324720
-4936.01
-716886
736749
794837
-966924
-583761
-1.62283e+006
-394043
-148472
30897
-286982
451888
-1.30945e+006
946046
-1.94884e+006
-222435
882383
170342
-472513
167413
-948695
-261944
-1.38742e+006
529445
-1.12214e+006
780418
215615
749435
873154
-133991
545362
-770828
-316178
2.4259e+006
933466
442274
76809
739930
-26790
261600
-1.18224e+006
265256
193195
-482724
452683
1.20242e+006
-346936
-798891
775895
-114976
1.392e+006
1.14049e+006
-353949
-69326.1
21179
-537650
1.35369e+006
-146053
-630973
-1.05282e+006
-699877
-1.67063e+006
-167894
215485
-931728
280509
1.20104e+006
-256483
-294332
92402
-285276
-354069
-373205
364516
363345
-310300
687316
-424590
-51312
-405921
20277.1
-638192
1.94441e+006
493651
-735103
-2564.01
330336
349254
363998
346736
-344943
1.1245e+006
1.0724e+006
-878569
-414516
482591
684313
20420
-2.76916e+006
313696
21940.1
-599179
-341495
-455411
-188489
-170118
-1.07867e+006
43573.9
-580184
1.06683e+006
9063
-342236
802829
-269325
34112
414197
-754201
-214937
1.82699e+006
-335596
-16969
998816
38324.1
1.42711e+006
695030
-648285
-369997
-717698
588859
-1.83895e+006
-342967
327436
-54908
-997477
113104
-707717
277787
-1.8901e+006
-748850
287925
-73845
-637180
2.41968e+006
-832837
304120
-994970
-1.41377e+006
243770
-328401
175119
243891
312844
-950322
-1.82971e+006
105516
-1.41466e+006
-235058
-1.74541e+006
1.15454e+006
-375508
1.22281e+006
-808426
-445286
-429206
-440847
1.11502e+006
-1.03692e+006
-1.21546e+006
1.82535e+006
898005
880185
577294
-107999
-231997
-694833
1.0455e+006
680073
-314022
-524159
-167443
-594510
222471
-444564
-242941
63756.9
-1.14349e+006
1.11579e+006
-453773
-1.08775e+006
1.22135e+006
-270273
-268378
142265
960751
285388
-722381
388246
-74409
229538
-346822
-221951
-494959
3.87605e+006
1.45553e+006
-388594
137968
750170
-256576
602025
367626
-675874
549875
-1.12708e+006
-1.11215e+006
-822745
-2.70693e+006
-10148
-23748
830719
1.03133e+006
-907905
706093
1.83631e+006
195587
949242
-700186
-1.47152e+006
-643931
661444
814959
-458408
329086
400611
-883966
1.12197e+006
1.24774e+006
604696
446765
-109572
-135954
-660496
108368
66359
-196879
-1.14869e+006
320049
-376374
-253954
1.25158e+006
1.33403e+006
1.84436e+006
-821970
-217021
-530694
605588
271901
1.08402e+006
592470
-640544
-556468
-201326
-372394
10259
587909
1.04997e+006
1.28697e+006
308510
409885
-875771
-1.12083e+006
607085
-372867
-741680
744939
-594287
724291
361851
-601547
828919
250258
506383
-223109
677862
-650413
-1.49912e+006
841659
-907397
16714
762332
366016
-514597
-2.42413e+006
448979
225311
-656235
-708311
-600591
943385
-1.20169e+006
955581
381728
-255152
35189
2.01549e+006
-1.10661e+006
-397293
-253793
368871
-1.4401e+006
-291767
2.13095e+006
-184596
-23677
-650607
-81944
581607
-572845
-1.11874e+006
-1.02536e+006
801755
895394
717475
1.42415e+006
-1.02286e+006
-270332
240319
79503
901949
-161887
1.89734e+006
-2.32318e+006
-453658
60970.9
-2342.07
1.17507e+006
-75274.1
-816682
255561
683304
-731004
-1.88325e+006
1.55577e+006
296404
-295361
329981
23562
-573868
606741
999886
-131678
-785689
491458
173531
474696
1.24762e+006
-466403
-519001
575253
280507
-92810
-541024
598906
-548735
590887
268372
-203100
-1.02788e+006
-1.43312e+006
-153046
-164053
-1.13526e+006
533278
1.28978e+006
-661109
-1.32833e+006
526802
-593116
507240
478174
615027
159667
-38770
-1.37079e+006
-204637
-169371
-1.89409e+006
422203
310023
-307148
304423
987525
-1.06937e+006
-151706
-451391
-49389
-133079
1.72345e+006
-1.24648e+006
260541
360411
106906
-752583
964624
31842
-251912
-211429
409525
802488
614031
94458
648172
-120771
1.10892e+006
303339
34366
-1.67209e+006
-920699
-1.17187e+006
147688
-509094
-793061
890.053
-650266
-7383.04
-276779
-514869
-36333.1
-523411
1.20038e+006
695334
-857337
130566
168859
-1.32032e+006
-843047
1.03547e+006
-888777
1.48101e+006
-717501
-1.17328e+006
-594278
1.77494e+006
392226
-1.57416e+006
678730
-551800
-918959
-296043
-862749
-489794
206218
788749
-315222
-968440
-477816
-547224
377250
-564519
546956
348875
1.44676e+006
-831029
-279602
-420376
89346
-352401
-125549
525855
396130
2.19443e+006
1.03727e+006
1.24787e+006
1.26786e+006
1.41936e+006
334335
501042
537282
-455171
242559
2.17312e+006
826292
-2.22317e+006
315019
-2.01314e+006
-599447
-553382
60943
1.21337e+006
-772934
-318473
-531613
6009.95
-232790
369860
-1.2287e+006
250890
-677450
88783
1.34365e+006
-1.77596e+006
1.31913e+006
396863
406782
236141
-79957
197778
-1.22984e+006
-2.02413e+006
638154
79479
-494813
-999443
-381659
-593664
58753
-1.10677e+006
398659
-172881
-636391
601152
-1.06607e+006
-921523
-1.75074e+006
-372904
-919055
377077
345007
1.06206e+006
-78365.1
267281
1.33166e+006
342548
458166
-659820
-1.15963e+006
376226
156172
-726428
1.75958e+006
-767443
-417760
-1.60582e+006
-440353
1.22004e+006
1.1438e+006
126592
1.13973e+006
1.11528e+006
-542560
-432349
-1.92383e+006
-1.05348e+006
1.51904e+006
56533
-52792
-804937
-2.07711e+006
226546
75925
148626
731018
552504
-27739
-258211
694779
1.71032e+006
-633998
556271
-67202
-358637
1.04411e+006
-1.014e+006
-241065
813131
-912191
848560
314283
-508786
-386786
624445
-1.7488e+006
316923
-202163
603535
-1.18742e+006
314962
-362675
-1.30407e+006
-536997
-572578
2.20242e+006
-1.11e+006
-537086
-10065
689883
-415504
-47304
184550
693593
512625
-1.28533e+006
663488
-103198
-618963
-1.03496e+006
-89344
587929
-65091
290238
575388
846385
107710
193365
-806548
594507
-238032
-440203
-268522
-224208
420608
-1.17657e+006
713420
-952887
151209
-936356
-168162
-486517
-179950
1.71237e+006
-714021
-572495
1.12648e+006
-974902
101891
-719464
52758
472820
1.3811e+006
1.02004e+006
-514505
236037
-1.74455e+006
-883351
-1.27836e+006
-62605
1.56756e+006
583116
8839.97
1.01084e+006
-1.75419e+006
482481
-442541
-651129
295666
-219833
-1.59661e+006
-1.35215e+006
1.13382e+006
-101944
327670
263718
-732132
271126
3959.92
-212488
-56718
-741503
-663398
474193
-1.61095e+006
662660
-1.04012e+006
1.20302e+006
160488
1.08358e+006
-483693
62299
-4.41893e+006
1.2865e+006
90649
201067
-92235
-1.62821e+006
517654
5095.03
-1.74633e+006
233571
-991326
61399
516185
625044
-271343
-33414
1.13491e+006
-388296
-49478
288817
261623
743205
-120454
349936
836951
-738668
294203
-90802
1.61023e+006
71719
1.20305e+006
-949632
588949
1.27916e+006
585699
179790
-1.00227e+006
150470
141903
-802531
-389842
-438318
-626719
-480783
44035
-1.1542e+006
511864
-80299.9
525006
-369084
-144564
-463412
-659648
-43476.1
493859
-1.14893e+006
778960
139701
-617147
-420946
-510059
-145891
-1.99258e+006
-288393
108916
-1.06181e+006
224831
1.17494e+006
-870018
137621
315671
-651876
-1.39112e+006
-120131
-537021
-47461
-660618
-253882
-849465
2.50776e+006
-23172
431485
-693640
56955
-537144
1.00714e+006
-284841
-638417
-1.91914e+006
97645
963350
-685339
-477605
-154181
827684
245327
-346345
500069
-1.54364e+006
-1.16303e+006
178189
-1.16758e+006
185157
637931
535947
-293423
-1.55399e+006
-17062.9
-18558
-40525
-1.61923e+006
522192
-122586
-1.14802e+006
-272181
842835
307533
348366
-447935
-874633
596026
636606
-282156
-200312
-1.12208e+006
141184
-675926
356473
412157
-1.01306e+006
605054
290654
358231
500414
-172884
619899
-992840
-451713
-1.3232e+006
-500879
935255
-613217
-716974
-1.04e+006
-2.57666e+006
-782070
855215
-1.13202e+006
1.3692e+006
989515
412906
416564
-891135
1.51431e+006
-199749
-655567
372390
-714484
171477
-154106
535352
-34905
-565851
-1.38998e+006
555846
-406987
605491
-1.71342e+006
621078
543617
-191335
-264172
-671740
212217
-528617
1.06742e+006
-102727
181488
-712820
900336
-1.12823e+006
737426
-860180
-572517
-1.3951e+006
-1.02355e+006
-319762
-643754
1.41449e+006
649903
-514804
1.26949e+006
-489805
-643479
-583855
1.93838e+006
-893500
-515509
-140677
-885688
860576
766358
1.61313e+006
-928690
1.06222e+006
-1.72862e+006
439077
-207009
-1.64022e+006
22502
263478
275375
1.24776e+006
-321886
251894
989634
367760
105452
-841059
127823
519003
421678
295400
812501
-191399
2.54459e+006
1.23733e+006
-815863
-1.91837e+006
1.52454e+006
1.4816e+006
800230
-19158
101630
-858046
-278269
193927
-229617
-25286
525088
2.41725e+006
-949001
-69096
-1.95955e+006
-782067
79070
1.11956e+006
-439697
-2.35096e+006
517914
-493138
720212
-515422
340600
1.07819e+006
279179
-683218
-554341
79428
664734
575047
-266351
-293887
-103578
324364
-88102.9
212098
-217527
-1.24091e+006
-2.11307e+006
-848910
-209941
-858272
-63175
126034
1.62273e+006
1.53194e+006
142959
-2.61754e+006
-585642
493813
468996
-1.60899e+006
236440
-1.37303e+006
-113464
-604464
56679
430560
-404081
431553
-124844
663405
-335137
287948
-281218
292006
-1.20588e+006
-1.69859e+006
-411608
-69242
-494879
-704763
-273851
226750
-1.18393e+006
-355852
-1.27949e+006
-580688
1.68758e+006
377572
529927
787534
594246
415708
-1.14637e+006
-1.07498e+006
1.28049e+006
114334
34766
-322838
-572872
-667596
215048
681703
-807394
-309123
-1.48933e+006
-101822
246102
606413
-520507
-822460
-484295
870302
-1.48333e+006
552498
792891
-149380
1.08918e+006
-1.05617e+006
241455
196245
431298
1.66445e+006
451757
-534894
1.0793e+006
157247
-1.29983e+006
231105
396337
310952
-502540
-151568
-608398
-72835
-323844
-559175
1.00985e+006
514881
-870937
254319
-582981
60172
-1.0883e+006
-215606
1.04337e+006
2.01286e+006
-667969
-5458.99
119805
290552
-33157
-858276
-2.38879e+006
626160
-438399
-693104
-1.04115e+006
-209766
-146155
-1.25796e+006
1.45824e+006
-511105
-347710
139340
-514090
382496
1.70353e+006
-1.24138e+006
987972
-810424
-1.76862e+006
540727
-185299
1.05428e+006
-555767
-1.00263e+006
-228175
90525
-1.4094e+006
145430
-365288
-1.20621e+006
299053
1.95161e+006
-364129
-10845.9
148485
378038
-525908
-236763
597111
-232177
760473
376151
-248736
202050
452557
-1.13439e+006
-113713
-509794
-9802.93
-1.00758e+006
-483668
1.52001e+006
417936
597820
-973944
-2.11412e+006
183610
-113557
-692123
-171662
282191
2.93368e+006
-596353
29606.9
-39568
114761
316005
561108
120656
821084
496030
-435784
-398015
-358264
43181
1.35996e+006
488456
986368
-2.00599e+006
-599195
321055
224589
361873
355484
-830159
-427607
443029
-201925
-933528
-251069
479681
429613
166546
-559957
304586
449985
-2.60625e+006
1.37663e+006
-72856
-225000
719333
778977
-1.05715e+006
-26680
118738
240374
-650735
429621
-1.29086e+006
-504451
-579138
-644969
274906
776580
940926
-783657
401040
891384
-710379
-1.46866e+006
996018
-2139.06
876047
-1.00893e+006
-351418
1.515e+006
-213897
-691498
354134
-227628
-1.19341e+006
1.54519e+006
-266413
822303
-599973
131749
500418
463892
-623214
461004
1.1402e+006
317466
-1.45431e+006
632626
-1.21697e+006
595420
639000
-87934
739924
938546
1.04864e+006
1.05418e+006
-146724
-493405
633147
152738
-479970
1.45508e+006
-501566
43076
737664
922085
675486
497682
-484863
-215693
-1.58719e+006
790401
-209058
1.52053e+006
-65687
-650786
210873
54540
-1.04042e+006
800934
213346
294133
1.38316e+006
718099
918139
175476
1.34751e+006
-111454
-158188
313818
128441
-2.14014e+006
-310522
314228
-282254
-1.38848e+006
271861
-148866
-521237
680080
-242649
41171
-865090
-1.01636e+006
-625123
349037
-968362
-831216
145459
129330
590186
-532413
-657180
-415187
129130
798268
953445
-268907
-681438
-468961
615150
-1.47257e+006
-1.46525e+006
319577
-202019
217310
-136250
-549847
-389894
3389.03
46712
-1.30538e+006
-512000
407439
-3839.98
-1.05325e+006
-312912
-299046
-1.29503e+006
-286244
1.06619e+006
-364038
2.02303e+006
2.44072e+006
2.04897e+006
1.30968e+006
1.31092e+006
-1.49876e+006
-249854
954707
1.24502e+006
-815271
807257
-45516
-371457
90818
-519252
326796
-1.46964e+006
243002
-33599.9
1.39375e+006
785782
-521866
-644453
189929
946070
-410299
-465995
-4321.99
-1.33503e+006
29367.9
-1.50638e+006
-201175
-692397
-1.61979e+006
738381
-554594
135668
-981845
372818
-352523
-492566
456630
-90384.1
-186990
861811
-451208
-338160
157305
-19415.1
-373425
-216898
399072
-882956
-187005
695191
83866
527625
192815
696776
-473461
-710569
-169573
-1.07906e+006
510939
-1.6999e+006
-982845
103427
419835
-1.27631e+006
8354.01
-434481
-227523
-1.74909e+006
-91015
1.28157e+006
369752
115193
1.45962e+006
-382947
130261
1.02075e+006
-268080
494249
-287114
86423
173809
222800
-232285
-172024
-289163
527958
-403332
-1.69527e+006
1.0013e+006
-162500
-868719
1.20637e+006
305600
119245
-402779
44847
-957311
1.88947e+006
1.58566e+006
-240581
1.20936e+006
265387
-1.21352e+006
-20633
-1.06773e+006
-495538
1.05613e+006
-25085
526284
897922
-366206
689328
1.64895e+006
-555893
-399912
1.93768e+006
10776.9
143554
-188375
-999539
-28596
-27771
926980
-280273
124486
-815023
-400228
-1.93865e+006
1.72739e+006
1.23235e+006
-323112
334950
1.36118e+006
993003
-945485
-388187
889634
-227828
-121881
-668890
203707
-874456
790525
292184
1.13648e+006
-1.03079e+006
944529
1.12237e+006
-1.33265e+006
571775
-819610
509727
-692608
258078
265757
-363806
568192
222884
5809.01
-558981
-760831
-596779
-124554
-593904
-865307
-998343
87703
-133162
2224.09
1.2977e+006
203485
-44882.1
573431
-42193.9
263926
-248305
929591
-284698
2.05237e+006
-1.07762e+006
262418
-289524
-374624
97399
2.0525e+006
974784
-348838
-2.23183e+006
1.11762e+006
-1.51606e+006
-1.1336e+006
-127797
1.66737e+006
-994498
-27793
-1.15543e+006
-1.21957e+006
-43779
-580781
-468268
301228
1.1076e+006
-1.60353e+006
-507822
1.1343e+006
-689540
572893
-255061
-1.04668e+006
-862779
824714
-825837
211805
252069
72606
269143
405559
253777
-281433
-499981
-624699
1.22751e+006
-365495
-231111
-728019
-609594
-967350
344030
548003
176340
178064
-124728
-2.4239e+006
89895
-1.24771e+006
175504
126469
46769.9
265054
-13212
-629424
-375503
1.38426e+006
-708120
864236
469419
1.18506e+006
-460659
270063
733246
647535
-2.4047e+006
237846
567051
668820
168397
-324994
1.18229e+006
-36911.1
953986
487671
531797
731386
1.29339e+006
-1.56894e+006
-806944
5023.96
146051
986921
561068
720214
-1.10128e+006
-934432
585309
-626133
82233
-430282
550277
324479
-837190
-465033
786705
-537611
-954078
183425
1.79627e+006
617191
-11646
-2.44339e+006
-33152
820119
-2.31268e+006
92100
1.59188e+006
893778
301246
-85126
90073
320150
-318167
93922
-100891
-501829
938082
383163
-625349
-216345
365483
-1.04824e+006
10635.1
-326662
358339
-182785
-1.34937e+006
1.47168e+006
658944
-1.2287e+006
153969
876426
1.37488e+006
1.20552e+006
515179
363446
-523097
-91406
-548207
-455252
814276
-20640
41369
-1.46647e+006
1.43881e+006
472005
33251
-882815
-313447
-790167
-15785.1
312217
-1.71516e+006
-136477
330485
-58003.9
-1.47614e+006
-1.26673e+006
-967045
834808
978621
-277444
-314637
1.1417e+006
-2.24443e+006
-816123
-916523
828117
-1.42539e+006
-291213
1.34951e+006
-801028
137245
860217
-301971
584592
-511510
-266578
-282766
1.17287e+006
-197895
-897526
1.93467e+006
594089
-494534
23159.1
484732
1.1765e+006
989753
1.22448e+006
-368452
-102286
720336
1.19932e+006
610870
-679381
-975655
-321577
-1.18739e+006
504966
-569258
282383
766575
425026
-49353.9
-133704
-590403
193082
-1.46753e+006
1.21656e+006
-659733
6262.08
1.19869e+006
-182281
228614
-1.13253e+006
-816073
-135194
-623913
990629
1.20521e+006
-63053
936507
-535683
-784366
-1.26679e+006
-316925
-772073
193067
-545454
138067
-1.49885e+006
-1.22319e+006
-514186
185237
-111727
70880.9
335330
100828
-460899
-75552.9
634447
-464589
-1.40648e+006
353581
-1.84508e+006
-460210
755210
-815950
-100080
-64900
609150
-7584.01
-1.33815e+006
-1.37569e+006
782840
1.04444e+006
1.31078e+006
-932692
584630
34030.9
111971
781108
-123153
310631
224442
634301
-777907
-1.74149e+006
-286434
-41946
204365
-76773
732535
200114
-3208.93
1.04055e+006
-224728
284177
243735
-969649
936274
606193
153257
9308.03
-834115
829982
-431829
753158
-449083
649358
-227660
689598
1.27155e+006
526714
393770
287074
337952
723305
911333
995662
-424233
-858546
-1.19889e+006
794808
-521152
-197073
-1.05179e+006
-306048
-1.28879e+006
635763
578588
1.73092e+006
-622201
286281
-491982
1.44389e+006
263582
77925
107639
-642051
829727
-247165
829361
-1.42875e+006
-899960
201341
783865
-373210
181160
-744942
-134718
138724
665981
-68766
513148
-567478
670675
-709931
484196
-29876
-1.32032e+006
318297
105075
47694
565224
-900807
-552134
340216
173058
-124177
333225
595221
-1.20076e+006
-663126
-894097
715809
-151336
15063
136106
-302993
1.136e+006
1.35451e+006
-584441
-341242
-85746
296322
-1.03502e+006
37737
539944
7701.07
-680327
269004
-179935
-628064
-34130
-2.14536e+006
1.4833e+006
756049
257323
1.30013e+006
627868
-473261
300224
-1.28953e+006
34916
-1.10157e+006
923414
-209344
314652
1.03366e+006
-1.10856e+006
238314
-2.44997e+006
-1.05082e+006
-978971
1.19496e+006
-1.21262e+006
740683
424087
-255684
687679
1.44823e+006
-94361
-621065
-52576
-815392
-313311
-814650
-804054
470948
-728023
793153
-467044
-488479
507979
415256
-2.29019e+006
210163
-1.714e+006
-762809
-550984
-1.58976e+006
28641
-307949
628999
-26282.9
670393
86883
-349072
522233
1.14733e+006
182140
505911
74683.9
252730
-531599
820052
491620
746494
-229455
-445000
-624701
653218
1.37479e+006
-64666
-420151
-1.06696e+006
-909786
-1.62204e+006
136851
-913092
1.14579e+006
-301542
301490
-285494
476820
1.14952e+006
1.321e+006
-1.11471e+006
900877
18844.1
390910
-1.13748e+006
965931
-1.32471e+006
-520618
613430
286420
-200611
-790337
533391
447855
-379320
195882
-1.18704e+006
-381852
1.35037e+006
465785
-324473
636231
130852
1.64087e+006
-926670
-605345
-455625
-12880
-733159
-859099
1.61352e+006
-688800
-320911
1.24552e+006
-1.46217e+006
226709
207597
-827515
-261649
281993
-618481
-280089
443029
69784.9
2.45644e+006
59512
569040
1.1074e+006
180900
-689676
-1.29361e+006
-299992
-17435
-1.21586e+006
999469
-369970
1.57282e+006
-515427
-873056
-258504
1.16149e+006
898449
203120
-978520
7709.04
-673210
-1.24225e+006
-356232
-422535
1.18103e+006
167008
607674
1.18006e+006
-1.0709e+006
-1.54377e+006
-661682
-620298
-1.22038e+006
90011
1.13215e+006
-870335
1.42268e+006
203876
-406089
275351
-590526
198340
684474
-574597
531786
-861699
-617205
-434675
1.72525e+006
-1.64722e+006
-292209
-264364
-1.00662e+006
-220392
52809
-633096
-743404
1.10368e+006
75775
-1.78241e+006
-484242
2.03524e+006
-283773
-518430
780211
1.33192e+006
29772
111968
402769
-704741
1.00239e+006
252852
-100510
-19390.1
-597178
33751
513631
225617
804215
-306700
631585
-822052
-345741
-180603
-661336
396228
771740
-352126
-69168.9
1.33831e+006
325794
-791294
881695
728997
69791
-1.12407e+006
947101
315832
-848649
-109671
208535
464136
1.20099e+006
154543
2.04428e+006
338825
576612
-1.36368e+006
741524
-550413
-366672
570127
-1.27903e+006
-820264
578971
-911660
515921
1.31248e+006
-656234
-818200
-940096
-77329.1
543125
1.1073e+006
602842
-575046
904541
284339
811712
146155
-496419
350907
753058
-214731
-1.05918e+006
1.86004e+006
432880
-612826
182783
1.14243e+006
-43344
1.03278e+006
886611
-9601.97
-238023
-991597
-1.44312e+006
306735
-271395
-300273
524079
836979
634048
288455
672833
2.43009e+006
171355
345219
272062
-975704
-466430
-474460
979889
940266
-1.34373e+006
210885
637049
-668731
1.27676e+006
598893
-289914
-939024
574411
576155
-952581
815899
-912701
-39966
-1.19026e+006
1.29839e+006
-1.56762e+006
436503
-550749
-1.94927e+006
1.0275e+006
-499662
291397
1.04661e+006
121202
507891
-1.90381e+006
-411913
-2683.99
-96539
-106244
-256119
749583
4125.07
676341
305219
960688
-940459
-434372
663507
182156
-1.21721e+006
713898
703092
-69622
70355
-702850
-3.33781e+006
-467272
1.21121e+006
-222379
450387
-131917
298372
-544682
-222304
273012
-792112
-972830
-289589
-642655
-782826
-165782
199594
-85780.9
458874
514665
-167988
-1.25049e+006
-720706
39087
-106508
-1.84885e+006
1.35486e+006
1.89933e+006
-1.85412e+006
483742
83510.9
-435371
214897
-1.22673e+006
-53238
228594
-23198
-310363
617988
-202306
-348110
-852413
172638
414126
-23941
-19345
698369
-941372
-1.28954e+006
337192
-55758
661138
-46505
-1.97037e+006
-2.94163e+006
-744028
1.19774e+006
1.60893e+006
-528918
-27332.9
-644422
309808
-1.16003e+006
-73903
-15146.1
-34418
728429
-38497.9
-657226
-276312
1.63648e+006
-1.15767e+006
321425
-752521
323466
-956881
-96602
-502784
-632882
415316
-162015
-360595
22566
510719
746355
-500176
336050
-723083
563312
-1.0402e+006
895251
-178011
811356
639550
-478832
-297309
720953
157921
-836081
1.15888e+006
-1.0476e+006
348471
333831
407963
416051
83828
561955
1.25863e+006
263571
-391505
-1.06564e+006
-856670
-815848
951739
213629
588099
1.09802e+006
324518
1.19545e+006
1.43736e+006
210255
788926
-257416
-1.43431e+006
-790005
-66640
-288505
1.14075e+006
-768313
567174
-1.55055e+006
1.74006e+006
664264
489322
-743617
-1.5085e+006
177051
356583
2.60846e+006
-10764
-14302.1
-31278
-78338
116845
487203
622667
-303025
-1.19301e+006
-431475
920712
-878806
374636
17892
-304245
-82383
-693102
-1.2578e+006
-259799
-357325
-137277
-704939
-306930
69336.1
-1.01703e+006
-274082
604350
-209569
-131240
-452467
-1.26459e+006
-172959
1.22261e+006
-426882
-441529
-182628
-866870
18041
-1.13516e+006
532694
-535995
665676
-147821
-674917
867887
-963358
1.05449e+006
1.14962e+006
714195
225286
278876
-776861
-1.83014e+006
61414
871563
619760
477308
-815932
1.2153e+006
-220639
-311924
777796
1049.04
-1.61127e+006
1.0343e+006
-47273
-748364
174071
376088
-853643
-339625
408752
-609055
-896366
-186199
-214092
581897
-760201
-526037
54484
-490741
-478149
750284
57690
-187805
91991
-757681
-289781
399514
-977569
317913
537819
-191747
-205371
-781023
-264251
349246
280174
71576
-957950
-70648
888761
-639215
-1.18334e+006
1.86773e+006
84604
1.44574e+006
-820133
977347
-1.51817e+006
-1.48588e+006
-610700
-396792
573163
-728362
-872637
304109
1.4461e+006
550115
207376
201642
-965932
953159
-996165
-324396
-355607
841020
-249470
-2.03495e+006
835619
55209
324937
-444557
-475799
37657.1
-109392
678656
-665483
-940159
756865
-318389
896134
-502246
955970
1.15545e+006
-979314
-770854
1.5309e+006
-17934
-785140
555828
73457.9
837741
-357624
531275
-866228
689888
815884
5175
660321
-776603
-45492
-973520
611680
442603
754398
221326
276813
405572
-107734
-1.05005e+006
-2.40293e+006
16270
1.13796e+006
-82530
-1.42542e+006
-725003
-530660
740296
294290
-152844
-531388
-108653
1.15252e+006
-866150
-89041.1
-236236
48826
1.7134e+006
-633467
653737
1.05639e+006
-149197
2.53989e+006
200294
-1.12058e+006
-431609
2.00216e+006
-1.32707e+006
-1.58489e+006
579863
-194274
201141
2.5751e+006
-1.42427e+006
769439
1.6937e+006
327016
561148
-597202
55480
-1.87579e+006
63734.9
-718854
-733694
-181970
-1.57075e+006
-604218
-2.11795e+006
996885
-1.07573e+006
1.03879e+006
324632
-1.26346e+006
466313
-613122
755584
130693
-921875
-1.3146e+006
-254011
178310
-1.32702e+006
395808
1.1671e+006
-615728
-312232
81243.9
-2.1598e+006
329073
-269443
-966901
678281
460365
356162
752614
917051
836630
-63223
74119.1
159607
-840719
-822593
982427
544042
-693879
967409
472906
597318
1.70525e+006
-126357
291789
-449982
-479878
1.73844e+006
1.14903e+006
-1.01965e+006
200936
-1.02388e+006
1.72517e+006
939358
-1.20599e+006
-149485
-33110
-58775.9
-1.36527e+006
850168
-117414
-433881
464606
-78727
-58313
-1.35296e+006
916093
-1.53093e+006
471424
81217
-99344
997622
1.54944e+006
47554
1.32999e+006
-91801
1.51119e+006
-202377
487981
400748
1.13789e+006
1.37509e+006
-139363
648983
147687
1.02699e+006
786556
-70723
-963108
276001
252229
-893024
-248593
682057
382421
342311
-70312
367211
74286
323287
1.03353e+006
229910
-253746
231945
204199
-962571
-713376
900670
1.18357e+006
-624156
-259647
2.47643e+006
272163
1.53164e+006
257216
-605001
665706
-909010
1.05271e+006
553940
-661089
-2.26297e+006
205617
1.4022e+006
-2.43461e+006
1.15677e+006
-1.29313e+006
-464820
1.27199e+006
-1.38723e+006
660860
-170338
-607999
987674
-139476
779643
-81279.9
-286844
-451028
-334710
665467
-189449
616355
137335
884118
-685010
261952
93803
-283150
415543
-577942
-728093
-180183
-307615
2.68304e+006
-1.30371e+006
-99108
-186202
49841
163345
-2.75543e+006
133758
-654541
-159650
526768
-591157
307447
-287093
273831
-410472
-507346
1.05843e+006
451098
2.87554e+006
389022
-255864
620184
-5159.03
-421469
408828
543077
220431
41330
-827348
-1.01715e+006
1.13149e+006
362627
625486
333629
-187159
-1.11717e+006
-290277
305075
558130
1.04732e+006
73894
-335237
808815
475057
282146
423590
27094
-896015
143521
-838165
744470
514634
-1.75096e+006
981965
-69938
734919
151525
1.14297e+006
-392897
-281145
-1.33318e+006
-515681
-910000
-418382
-425375
-169289
-414906
-301587
-1.02646e+006
835599
-190478
60730
551678
513274
266771
305036
-1.26681e+006
-55211.9
-595068
1.64269e+006
549575
-1.06375e+006
-179301
253927
918785
-356581
-28333
407922
889856
-681843
98020.1
816274
-808048
-2.03612e+006
-1.58985e+006
144288
1.16769e+006
-1.07732e+006
-356088
713383
911148
1.1087e+006
-95865
470215
5245.99
414389
1.42659e+006
1.2673e+006
-655806
825875
232489
255195
-602191
1.27979e+006
-1020.95
340353
-173632
649661
-284466
-342095
887838
214187
-762159
-54492.9
423336
-379942
177382
-2.41281e+006
97419
-343983
-395661
665153
-708906
-1.8558e+006
-1.07485e+006
201550
836520
1.12501e+006
286979
-452933
947438
-948639
222951
-485753
-610377
-301481
359977
867880
-244507
-488819
1.62337e+006
425569
-310658
1.1205e+006
-896126
345987
51397
-163269
-965409
679442
127937
1.8543e+006
-898234
139787
-196034
-281702
-830174
990144
586417
-216409
-40440
416299
867080
388538
-155770
-227747
-2.21058e+006
937697
550379
672895
-373609
1.4524e+006
-737714
-15842.1
-79537
-162717
526903
-118505
-322820
296132
157588
-272551
-784118
982215
-791204
-742575
-26797
431978
948417
-801281
16525
-869150
263810
-1.19722e+006
613501
-2.14566e+006
-1.06007e+006
476129
204009
791803
-1.94907e+006
650162
-1.84519e+006
-669354
1.18235e+006
-861947
466406
423055
-624634
-1.0387e+006
-986867
-731086
-826675
25891
-1.47076e+006
542836
-11121
2.12937e+006
-504858
-794538
231180
-102382
-300387
-353638
260039
810155
-899217
-62479
-206329
-284092
-117126
351962
-114719
-15516
32346
-129107
-19665
-539362
243852
-1.38275e+006
370397
-757495
-1.14306e+006
-564617
475504
-118263
-289881
-141178
-612999
896021
-1.71318e+006
355113
44931
419802
434959
-632734
1.38263e+006
539364
-308084
551049
-117543
1.72131e+006
-662378
1.93701e+006
-938028
775061
-114343
-1.1939e+006
60648
-527213
2.27774e+006
56017.1
155257
-893762
-192739
1.27216e+006
1.0324e+006
1.58538e+006
-1.23113e+006
-534138
-115160
-738576
-81975
2.71978e+006
62719
-216434
-496435
2.06968e+006
995270
366702
272562
869290
129676
660900
1.03352e+006
-210984
259753
1.0409e+006
-88664
1.03643e+006
-338246
486973
-210996
1.65294e+006
-1.77004e+006
294626
2.11901e+006
-524240
-659054
-210957
-311940
-438098
-1.00512e+006
2.02581e+006
-984383
300957
1.15485e+006
210568
1.44676e+006
208760
-77742
602656
-396232
-861683
-306532
-627471
-963948
-2.1495e+006
-41178
458158
100441
1.13033e+006
-163180
384343
-136111
753938
1.25029e+006
-1.07279e+006
1.05501e+006
344619
-194666
215716
-936812
-287331
134509
101910
142425
645537
449701
-565795
-483751
2554
843245
-1.17563e+006
247308
-294655
-49287
163350
402088
-1.94507e+006
-449532
1.02528e+006
263627
899850
553061
119062
-315822
418297
38933
-491317
1.10684e+006
1.02838e+006
1.42342e+006
-1.63309e+006
-97152
-73353
644408
-39188
-1.4699e+006
375529
-1.28738e+006
1.46833e+006
930680
-955093
163848
928614
549891
-1.32393e+006
-427068
-1.36535e+006
-712609
826604
-472223
560439
-804675
-84484
123249
320073
-283440
-983265
-1.69214e+006
1.10268e+006
-804748
-402429
-878523
203592
-6000.96
15859.1
-205366
1.5686e+006
-1.75937e+006
-302922
-436905
-703290
-164436
671.979
777884
-180129
-1.64313e+006
459242
125090
370423
355097
-217955
-1.30061e+006
352125
710921
-193062
-342397
-483099
-786395
-1.3861e+006
-369245
102914
496623
-626267
1.00243e+006
712010
-102216
-273676
-573111
-1.22833e+006
-686084
368287
-1.12493e+006
921040
782196
2.22878e+006
952548
-169637
-330506
1.98379e+006
15044
-1.07876e+006
-937889
-404061
556466
3142.99
465103
-539162
-968999
-422538
-743352
-1.21145e+006
42775
-709148
-388745
-270685
-227144
-563772
-574477
-1.39713e+006
-728328
378342
53213.1
439913
-127275
1.08934e+006
-580434
731807
-53819
-511146
318152
1.15071e+006
-791780
-643956
-468651
675749
-437143
1.92156e+006
-278133
253356
-173691
30262.9
506776
954929
-99922
1.55101e+006
845610
-234128
870608
410389
536754
208035
-847657
-633648
343814
1.6108e+006
1.35189e+006
-581927
712461
343029
-2543
493654
402691
-33758
-54863
3580.06
879835
-319227
-293897
-418118
-306778
1.49637e+006
-188584
1.46997e+006
301061
-235191
-952805
-779955
-168547
-1.04286e+006
-819619
-1.24496e+006
-451732
827217
184327
-69390
-1.18788e+006
-123334
-397418
-860938
2.10937e+006
-976451
-1.38928e+006
791010
-1.16699e+006
3530.01
-822765
29375.9
-298520
-661310
-100263
285915
-1.86952e+006
-1.89964e+006
-586001
-1.304e+006
-331469
-744382
579019
-1.73581e+006
588614
478204
177055
-1.16033e+006
630375
-617172
2.06031e+006
1.18342e+006
-413188
-830743
-38926.1
343291
1.04703e+006
-1.25851e+006
719607
844862
-576116
1.45138e+006
2.17724e+006
-474280
384946
-1.19368e+006
306287
-1.15415e+006
-239683
-1.38275e+006
377832
48307
-199814
177473
1.37612e+006
114799
1.28157e+006
-1.08831e+006
514598
856177
-152644
-624793
827293
-547511
774999
-1.21779e+006
440314
-83068
1.19222e+006
222734
-679018
-673668
197472
-192799
972427
-125811
1.28309e+006
-672149
-179218
1.11372e+006
385756
-523656
-34314
-491444
818782
-184613
-757748
938804
124534
635884
775981
-20381
660405
-226067
-2132.97
127202
1.00674e+006
-1.17277e+006
-177856
345627
-998024
393868
911312
-127983
1.53594e+006
782645
62966
1.03348e+006
-1.43711e+006
997168
-768860
43654.9
1.34447e+006
1.40686e+006
-58985.9
-881496
-340766
562213
430357
-300640
354496
1.29006e+006
-907227
-284762
905765
-563593
-181094
-539145
-598621
182209
103024
899388
-20453
-495119
-55960
-3.27319e+006
1.30761e+006
308529
51386.1
798399
422823
-1.1954e+006
1.32245e+006
744871
192665
-708841
813754
-273942
-367495
-861830
-2.88165e+006
-1.23835e+006
-1.14778e+006
474346
118809
807377
-504154
83313.9
-258069
835156
954885
30803
126104
572762
-191680
656357
-991304
-1.82952e+006
642998
-769371
1.37724e+006
-141220
1.2356e+006
241269
-381783
-737877
-784009
-389069
939628
248020
970078
-459697
-676137
113020
-502604
638595
90971.1
444714
129728
1.30162e+006
339077
489610
1.34565e+006
-649090
19034
-1.54825e+006
-1.45197e+006
719860
-417300
-768639
-584782
365756
-1.05185e+006
1.25787e+006
-189793
234659
588108
-832384
702245
-418055
-2.61894e+006
-177395
1.17959e+006
247037
537559
1.22452e+006
-450204
293721
-449289
-31757
-623622
346941
273954
363396
-867846
265479
-123533
-573383
310079
518328
232127
462218
-674358
4105.01
545959
277316
-1.29683e+006
-893583
-1.31822e+006
1.29295e+006
759591
-1.82812e+006
395023
-1.81045e+006
-776834
54842.9
21629.9
848269
203207
-376368
-779459
-943325
-480619
157810
847635
-221106
-508754
283848
2.74106e+006
-220008
476105
-247853
301490
-198105
816357
-153666
534318
-296767
818497
-432818
-312128
-661955
893890
183626
350767
-387375
-573653
86894
-1.13217e+006
-269536
-278908
-920882
-311023
878754
874459
1.12447e+006
-1.23774e+006
353011
563596
774259
507959
-40126
-350622
379415
1.37452e+006
408003
188262
204799
22700
-280912
945986
-1.34631e+006
112415
1.12697e+006
1.06307e+006
-35842.9
-462866
-382362
-344657
-1.04593e+006
17310
1.55891e+006
-469379
445729
-839973
1.09996e+006
-896242
-438732
14616
188034
-15598
13660
661086
-948126
-778805
813673
1.32104e+006
-478248
-665753
1.10984e+006
1.04096e+006
625959
-1.48894e+006
1.23087e+006
488088
137749
-1.06075e+006
697059
1.21821e+006
1.46036e+006
188926
-1.14625e+006
229459
-1.55805e+006
-482854
-1.8671e+006
-1.37664e+006
678817
-731486
593359
-587882
594035
145544
-460207
-1.46883e+006
1.17379e+006
2.41754e+006
1.45729e+006
-464762
855638
98539
16618.1
-726313
537570
1.00434e+006
226887
962170
673015
281703
518301
669340
148745
-878406
403991
866893
361796
-979529
-410654
-1.28685e+006
290973
-607550
103046
-760539
557136
-17249
1.00145e+006
1.52169e+006
490192
-319742
-820169
806486
634187
-354407
181330
-222657
-49205
-417492
-712116
-1.06098e+006
-160706
-1.1651e+006
203341
-910184
915308
-376311
-2392.02
69112
-434378
-697699
684783
28213
408106
-525202
632749
17585.9
-83866
-11202
-292691
-144212
-38550
-1.18845e+006
181901
-1.5445e+006
-1.80107e+006
867671
790144
-2.17923e+006
-1.21405e+006
193647
121175
782457
-996703
842146
83257
129756
2.11618e+006
-937054
-886727
747333
-835952
63008
763502
-685984
-713941
-163165
-181098
1.41296e+006
168646
-984744
-406376
-411462
-554159
-1.27508e+006
60517
1.03992e+006
-1.2417e+006
632472
1.14722e+006
63699
429734
1.0378e+006
110531
-184910
-523249
-1.3301e+006
118080
634265
-839432
494777
-187553
992531
-34341
68484.1
260542
1.62976e+006
2.21031e+006
687798
-611908
-89910
663222
750701
-796103
1.60287e+006
1.09906e+006
-222279
-271605
944873
-1.1338e+006
1.05577e+006
-804871
742960
844404
162502
158355
-341110
735048
-1.33562e+006
55179
-227636
-234595
340959
46829
6514.94
-320806
720072
-98623
-715690
261357
-289345
1.68752e+006
143346
298121
114499
-133324
176455
-868484
-307776
399307
254138
-1.70908e+006
-62882
218271
578366
-935959
1.46118e+006
650640
390305
-961272
921410
1.10305e+006
1.0649e+006
-281623
379444
-500318
24254.1
-928945
-309312
505099
1.66675e+006
-468974
-18187
-832224
2.18893e+006
191088
206660
630624
148295
-1.32581e+006
-789250
353226
251479
-284868
626144
-1.57631e+006
-1.308e+006
-436850
860081
-1.19757e+006
-302996
-1.41128e+006
-283975
-1.52073e+006
-251111
-542676
637900
603655
-586737
944478
-327476
248364
245301
-14956
-242896
883575
-1.1927e+006
840546
290875
-494948
764303
293821
-354693
-110436
-851930
318728
-1.20029e+006
-484868
625493
297223
-647425
-335256
73336
232160
150253
-409493
-803845
-721723
-17715
677828
-896494
-378730
-883021
-389610
-750334
-242231
1.17405e+006
637383
-730972
139040
-247066
-1.14754e+006
-153681
660379
-849817
-48111
-405042
-358622
-208906
-134457
85911.9
1.24587e+006
518511
-595534
-203107
-1.16542e+006
970941
-437194
116964
269626
410896
-1.12176e+006
-1.73136e+006
-298035
-674609
840990
-805081
-413402
296059
-138644
-309574
-696014
-280481
561585
-219258
158604
247100
-121172
1.48964e+006
-854307
-1.25108e+006
-14310
77959
-948896
724987
-1.22445e+006
1.08885e+006
106107
-54787
862381
1.52621e+006
45468.1
1.52686e+006
-339934
-215630
887458
1.60289e+006
48352
-399489
142608
566649
1.05457e+006
434872
-1043
-1.06219e+006
172179
270674
1.48108e+006
-1.12201e+006
600842
-533238
881755
760503
-241624
127760
-1.50056e+006
-722328
677002
-1.10676e+006
-1.44687e+006
475292
1.9242e+006
372866
365553
-1.59684e+006
-1.81344e+006
1.64054e+006
659827
813078
326610
-584244
672379
444912
253289
-1.33195e+006
-865060
1.34447e+006
277245
29409.1
103631
2.69853e+006
-482800
1.23812e+006
-242778
788822
417585
20305.1
-1.47858e+006
-999921
-347217
393275
-468649
27472
-1.933e+006
-873701
-987859
1.39305e+006
-859420
900174
332441
89870
-496457
-770248
-1.02041e+006
954838
-182052
-1.81417e+006
1.18612e+006
-147332
94511.9
-861990
-399471
-262028
-643633
-203510
646338
485278
818879
1.70286e+006
-1.06506e+006
289376
-291804
-500083
-958273
1.32713e+006
903941
2.68752e+006
-811902
-433503
-243318
-1.13868e+006
-338188
-59464
1.09146e+006
-96190.1
445427
162808
325484
-110434
311486
-891595
-230378
194762
-318724
404498
-1.46139e+006
399588
-450424
-1.38302e+006
531420
330297
-80492
1.64174e+006
95241
241014
-2.13747e+006
-768744
-392956
-593672
320836
725135
685092
-1.08365e+006
-1.2969e+006
319440
-1.29729e+006
-246303
-225322
114450
36329
-87202
682559
992733
-275351
501716
483896
541765
-173716
-957821
-109743
604641
208929
-225647
550587
-535178
-599800
1.40332e+006
-1.08228e+006
484317
-746565
208165
-563113
-546531
1.32843e+006
649835
-23999
-411979
-196593
758764
-280716
77355
1.28182e+006
-97761.9
-934411
453679
-895032
1.12958e+006
-471717
-1.31716e+006
-222808
372399
1.50987e+006
-111091
25169
102744
-725566
478360
-586059
482758
-128162
-723061
-1.4554e+006
201700
1.13177e+006
-328939
-786630
-443147
-946829
101615
2.61166e+006
-545444
-377.004
864877
1.09576e+006
539427
-253122
923925
-2.43467e+006
1.24675e+006
-836962
391809
-506531
915422
-2.63845e+006
1.20984e+006
446114
1.16963e+006
-1.1095e+006
-1.25867e+006
-106310
-1.95939e+006
-374092
1.48497e+006
845414
-368105
195310
-507887
83441
-204661
1.88855e+006
-411205
460745
-700293
-858137
-564286
-956791
239328
-445763
-198631
-146606
-687508
424827
484463
-1.07404e+006
-445357
-125349
590574
-831609
-398965
46631
356084
-1.1195e+006
-93176
26602
785363
-179606
1.5083e+006
199802
983987
122564
-272250
-225647
-80899
-573812
-161053
40014.1
107066
23167
88268
-152790
34256
-151527
303997
240095
-377567
-338098
898406
122621
260425
-412143
-857735
1.90756e+006
-1.47433e+006
-273139
1.05583e+006
730716
168277
2.2427e+006
-863384
155164
-347510
294899
-1.51062e+006
419067
164557
268797
1.29153e+006
-1.34989e+006
918096
95679
91800
1.43142e+006
-364289
-141127
899664
-322194
472052
-1.13121e+006
1.60186e+006
549975
1.37357e+006
951260
687477
698843
-102980
-2.24414e+006
735268
221846
687434
-395471
-897441
1.6455e+006
229951
351582
1.50533e+006
613944
1.69601e+006
-70839
-303972
-377410
-1.28336e+006
-279473
1.29788e+006
506721
-188405
746498
-572590
659761
929041
-508284
-24468
785327
-580312
422198
-546032
-424022
-637691
7885.96
-675479
1.06144e+006
746409
-781752
1.06659e+006
-1.10615e+006
-239119
316181
-1.59261e+006
-1.35414e+006
-849121
-713305
-143162
-345860
1.00145e+006
416413
1.33241e+006
1.40679e+006
491076
569173
-1.2776e+006
621608
892672
1.30931e+006
175656
-318576
-691555
-601920
95402
-489479
1.18888e+006
-52351
830739
29280
987920
124209
407596
1.55384e+006
-29686
636400
-1.24207e+006
-1.0588e+006
38752
-126156
-472174
-35684.1
280801
-2.85668e+006
-796047
165849
232342
1.93957e+006
345844
-1.80734e+006
813789
916799
163237
-31571
724023
-1.78098e+006
1.30996e+006
-591829
634475
-409912
-473557
906867
701502
-46050
-482068
49076
1.10257e+006
937427
743494
1.21829e+006
510207
223451
-873225
-352271
170749
-219377
-359037
548853
241602
705276
-852714
-672671
355882
-180187
-746429
683930
-514837
639754
369186
-430001
1.1234e+006
-124223
-246557
-873031
-879862
-1.08929e+006
-75889
721155
-335545
272660
-942729
-292949
-1.26736e+006
375076
512749
1.82085e+006
1.76021e+006
1.11937e+006
521082
-1.01412e+006
1.58622e+006
349840
-143070
1.47213e+006
837065
-43614
-88901
1.71213e+006
1.27094e+006
196610
461267
-730513
1.54002e+006
1.14785e+006
224670
692110
-1.19099e+006
67611
-323851
330780
-485720
361319
998669
1.90213e+006
-434505
1.56201e+006
-775583
1.38062e+006
1.47278e+006
-79265
-1.27514e+006
-451035
855634
928111
854307
1.17527e+006
-338727
1.53025e+006
-815636
634045
13981.1
2.01021e+006
767854
720121
-857626
50131.9
-234490
281815
42956.9
-773650
497359
-683390
575242
957931
143482
427162
-59076.9
-598129
175492
-114298
-941825
-359994
927778
711243
1.8503e+006
-872947
964425
1.20389e+006
520751
1.22648e+006
-1.02377e+006
10397.1
-116220
-2.0333e+006
-1.12381e+006
-632658
-853506
-389038
-838682
61813
-102650
486864
286410
-407400
-137301
-1.66165e+006
198803
623981
-1.10901e+006
1.31886e+006
-1.92052e+006
-838958
216732
836527
-195516
-300327
-768319
381921
-335980
909183
835165
240118
495533
370244
189507
994063
-407073
-203586
-5321.02
-946062
1.09162e+006
94555.9
2.37708e+006
-762408
-418431
1.3488e+006
-490875
-509027
657729
-194320
-133518
-112095
-104504
203845
-138526
-891247
130744
-554188
1.13038e+006
-1.30016e+006
-743142
144094
-796733
-753242
-69943
171982
23285
-436130
-238328
270142
217964
-424972
-84523
324146
-155391
870908
17732
2.02135e+006
-448148
-204818
1.06332e+006
-1.34592e+006
-805754
215542
379023
